
\data\
ngram 1=83
ngram 2=1302
ngram 3=4480
ngram 4=8258
ngram 5=10216
ngram 6=10267
ngram 7=8948
ngram 8=7049
ngram 9=5045
ngram 10=0

\1-grams:
-4.316408	%	-0.8517887
-1.939931	'	-1.666079
-2.410694	-	-0.3832765
-2.554129	0	-1.14771
-2.711757	1	-0.6201129
-2.680344	2	-0.9363413
-2.751531	3	-0.7827744
-2.795318	4	-0.7445402
-2.763597	5	-1.072954
-2.907315	6	-0.6789917
-2.882486	7	-1.70466
-2.981436	8	-0.7614583
-3.096428	9	-0.8127185
-0.9234356	</s>
-99	<s>
-4.619836	<unk>
-2.514453	A	-0.1691797
-2.851444	B	-0.2493361
-2.504233	C	-0.2399293
-2.739791	D	-0.3269677
-2.474941	E	-0.6304423
-2.874515	F	-0.4367037
-2.961686	G	-0.240777
-2.961686	H	-0.5666546
-2.734037	I	-0.5138057
-3.023852	J	-0.4312671
-3.384644	K	-0.4728033
-2.623609	L	-0.5884048
-2.606233	M	-0.7528949
-2.670359	N	-0.6223249
-2.745621	O	-0.4687667
-2.722754	P	-0.4608518
-3.439043	Q	-0.4225885
-2.581407	R	-0.7533524
-2.6192	S	-0.3073574
-2.795318	T	-0.4107152
-2.907315	U	-0.5228274
-2.808684	V	-0.3614492
-3.314016	W	-0.7853557
-3.137836	X	-0.8413966
-3.314016	Y	-0.6110327
-3.272599	Z	-0.4113848
-1.22544	a	-1.562711
-2.063346	b	-1.715409
-1.482846	c	-1.908633
-1.671293	d	-1.714935
-0.9734075	e	-2.629097
-1.982336	f	-1.923936
-2.053694	g	-1.141581
-2.133356	h	-1.076714
-1.166386	i	-2.592031
-2.597799	j	-1.448223
-3.536041	k	-0.6208961
-1.453417	l	-1.457398
-1.562092	m	-2.256014
-1.194662	n	-1.430997
-1.322528	o	-1.705899
-1.637063	p	-1.636372
-2.354739	q	-2.764969
-1.16223	r	-1.629874
-1.251924	s	-2.263481
-1.221033	t	-1.857686
-1.440144	u	-1.260393
-1.858916	v	-3.42607
-3.712354	w	-0.3702692
-2.468691	x	-1.297501
-2.665451	y	-0.3800571
-2.450465	z	-1.978928
-4.014047	°	-0.8510342
-4.316408	²	-0.8517887
-4.316408	É	-0.8800261
-3.536041	à	-1.891262
-3.837514	â	-0.7651168
-3.469032	ç	-0.3090811
-2.573437	è	-0.7697113
-1.546229	é	-1.608973
-2.991658	ê	-1.48597
-4.139429	ë	-0.3809075
-3.314016	î	-0.68843
-4.139429	ï	-0.8411482
-3.359803	ô	-1.591842
-4.316408	ù	-0.8517887
-3.410992	û	-0.3460595

\2-grams:
-0.05744325	% </s>
-2.587174	' </s>
-1.673942	' A	-0.1729535
-2.587174	' E	-0.1540814
-2.071882	' O	-0.1130151
-2.731385	' P	-0.1369725
-2.731385	' U	-0.1525166
-0.366446	' a	0.0543319
-0.7931284	' e	-1.161231
-1.395188	' h	0.3439337
-0.90309	' i	-1.179352
-1.082877	' o	-0.4739719
-1.594761	' u	-0.5535538
-2.472714	' y	-0.9597858
-2.196821	' à	0.4393327
-1.155428	' é	-0.911747
-2.196821	' ê	0.01072383
-1.599337	- 0	-0.2751144
-1.298307	- 1	-0.3043888
-1.724276	- 2	0.1214902
-1.484625	- 3	-0.1249826
-2.25884	- 7	-0.1412401
-1.724276	- 8	-0.3198085
-0.4690034	- </s>
-2.25884	- B	-0.1571407
-2.25884	- C	-0.1611195
-2.25884	- J	-0.1479904
-2.25884	- M	-0.05985165
-2.25884	- P	-0.1596033
-2.11463	- R	-0.110862
-2.25884	- U	-0.1525166
-2.25884	- b	-0.1132472
-1.025306	- c	-0.2958312
-2.000169	- d	-0.3507101
-2.25884	- e	-0.08469798
-1.496492	- i	-0.8789121
-1.298307	- j	-0.3418126
-2.11463	- l	-0.1009956
-1.484625	- m	-0.6671274
-2.25884	- n	-0.1551693
-2.25884	- o	0.00722377
-2.25884	- p	-0.1591614
-1.599337	- r	-0.08764449
-2.11463	- s	-0.1160524
-2.000169	- t	-0.3294103
-1.160004	- v	-1.031466
-2.25884	- à	-0.1305008
-2.25884	- ê	0.4462379
-2.114348	0 %	0.7404045
-1.970137	0 -	-0.1469924
-0.6097468	0 0	0.240935
-1.454845	0 1	-0.1751472
-1.970137	0 2	-0.3416817
-1.454845	0 3	0.006470114
-1.454845	0 4	-0.5315172
-1.579784	0 5	-0.455932
-1.340133	0 6	-0.09859601
-1.340133	0 7	-0.3696692
-1.855677	0 8	-0.2374377
-2.114348	0 9	0.1081551
-0.384807	0 </s>
-2.114348	0 h	-0.1652842
-1.192722	1 0	-0.05998617
-1.192722	1 1	-0.1146146
-0.8562344	1 2	-0.5804451
-0.9945371	1 3	0.04067007
-1.696399	1 4	-0.3337088
-0.9945371	1 5	-0.3305123
-1.295567	1 6	-0.4846092
-1.696399	1 7	-0.7725073
-1.420506	1 8	-0.1119726
-1.696399	1 9	0.1927267
-0.7514991	1 </s>
-1.95507	1 H	-0.06716131
-1.95507	1 e	-0.09837396
-1.842651	2 -	-0.5007589
-0.7252989	2 0	-0.227631
-1.842651	2 1	-0.02479371
-1.224514	2 2	-0.1174899
-1.452298	2 3	-0.09954107
-1.842651	2 4	0.05530281
-1.026329	2 5	-0.3037191
-1.728191	2 6	-0.2836426
-1.212647	2 7	-0.243593
-1.452298	2 8	-0.3767507
-1.452298	2 9	-0.327359
-0.4822609	2 </s>
-1.255273	3 -	-0.2730804
-1.14056	3 0	-0.1387323
-1.380211	3 1	-0.02426921
-1.255273	3 2	0.02297235
-1.656105	3 3	0.003637791
-0.90309	3 4	-0.06037048
-1.14056	3 5	0.2596207
-1.770565	3 6	-0.2786537
-1.656105	3 7	-0.196062
-1.770565	3 8	-0.2899165
-1.914776	3 9	-0.1496484
-0.4771213	3 </s>
-1.914776	3 X	-0.1478623
-1.335792	4 -	-0.1167968
-1.096141	4 0	0.0245221
-1.726146	4 1	-0.02479371
-1.611686	4 2	-0.3544863
-1.611686	4 3	-0.3092134
-1.210853	4 4	-0.5467572
-0.8586708	4 5	-0.1513218
-1.870357	4 6	0.07002607
-1.726146	4 7	0.1960021
-1.726146	4 8	-0.1244939
-1.335792	4 9	0.175511
-0.4511855	4 </s>
-0.9420081	5 -	-0.298971
-0.6690068	5 0	0.01132375
-1.367977	5 1	-0.03977087
-1.75833	5 2	-0.1444247
-1.367977	5 3	-0.4259688
-1.367977	5 4	0.06911863
-1.75833	5 5	0.006454244
-1.243038	5 6	0.0457952
-1.64387	5 7	0.3880892
-1.243038	5 8	-0.4675759
-1.902541	5 9	0.1081551
-0.544068	5 </s>
-1.612202	6 -	-0.1435236
-1.497742	6 0	-0.07428637
-1.756413	6 1	-0.08183221
-1.497742	6 2	0.1695714
-1.756413	6 3	-0.13393
-1.756413	6 4	0.02311812
-1.756413	6 5	-0.0204179
-1.221849	6 6	-0.08181229
-0.9821979	6 7	-0.3881526
-1.221849	6 8	0.09681578
-1.756413	6 9	0.1081551
-0.3767507	6 </s>
-1.122216	7 -	0.08648328
-1.247155	7 0	0.1000313
-1.247155	7 1	0.06832331
-1.247155	7 2	-0.04917389
-1.122216	7 3	-0.5547261
-1.637508	7 4	-0.1213051
-1.122216	7 5	0.0144192
-1.247155	7 6	0.1142973
-1.781719	7 9	0.1081551
-0.3093025	7 </s>
-1.536482	8 -	-0.1469924
-1.146128	8 0	-0.37123
-1.680693	8 1	-0.08183221
-1.021189	8 2	-0.01875815
-1.680693	8 3	-0.1568516
-1.536482	8 4	-0.1473495
-1.422021	8 5	-0.2480328
-1.680693	8 6	-0.1525166
-1.536482	8 7	0.1960021
-1.146128	8 8	-0.1187506
-0.3928004	8 </s>
-1.680693	8 C	-0.1623828
-1.418382	9 0	0.2992943
-1.562593	9 1	-0.08183221
-1.418382	9 2	-0.3416817
-1.418382	9 3	-0.3391345
-1.418382	9 4	0.06658381
-1.418382	9 6	-0.2786537
-1.562593	9 7	0.1263662
-1.562593	9 8	-0.1497922
-0.90309	9 9	-0.4709259
-0.3290587	9 </s>
-1.392005	A </s>
-1.49485	A A	-0.2951092
-2.010142	A B	-0.111387
-1.895682	A C	-0.1954349
-2.154353	A F	-0.04693604
-1.895682	A G	-0.223525
-2.010142	A H	-0.1453358
-1.619789	A I	-0.06019717
-2.154353	A K	-0.1320667
-1.49485	A L	-0.1468997
-1.895682	A M	-0.1114088
-1.09691	A N	-0.244018
-2.010142	A O	-0.0697149
-2.154353	A P	-0.1433781
-1.017729	A R	-0.02859008
-1.895682	A S	-0.1774971
-1.619789	A T	-0.2615196
-1.380138	A U	-0.1433825
-1.49485	A V	-0.2779017
-2.010142	A W	-0.4863759
-2.154353	A c	-0.1237718
-2.154353	A d	-0.09160271
-2.154353	A f	-0.03478925
-2.154353	A g	-0.11043
-1.380138	A i	-0.2572167
-1.392005	A l	-0.2235446
-2.154353	A n	-0.1436607
-2.154353	A o	-0.1654208
-2.010142	A p	-0.01600225
-2.010142	A r	-0.1390277
-1.49485	A s	-0.7219054
-2.154353	A t	-0.1535437
-1.055517	A u	0.1269522
-2.154353	A v	0.04449828
-2.154353	A y	-0.09712454
-1.813318	B 1	-0.1377466
-1.813318	B 9	-0.108554
-1.554647	B </s>
-0.8527849	B A	-0.07668692
-1.813318	B E	-0.1161852
-1.669107	B I	-0.109571
-1.813318	B M	-0.1489963
-1.813318	B N	-0.1621504
-1.554647	B O	-0.1003924
-1.039103	B R	-0.3721992
-1.813318	B S	-0.1611003
-1.554647	B a	0.06395617
-1.153815	B e	-0.136957
-1.669107	B i	-0.1193593
-0.8527849	B o	-0.430814
-1.813318	B r	-0.0390456
-1.278754	B u	-0.05963819
-1.669107	B é	-0.1432916
-2.164653	C '	-0.09029914
-2.164653	C 1	-0.1014278
-2.020442	C 2	0.04744463
-1.905982	C </s>
-2.164653	C A	-0.1609885
-2.020442	C C	-0.08871975
-1.905982	C D	-0.1107733
-1.905982	C E	0.05570512
-2.020442	C F	-0.3956159
-0.876761	C H	-0.491962
-1.50515	C I	-0.2278528
-2.020442	C J	-0.1460439
-2.020442	C L	-0.0725581
-2.164653	C M	-0.1435483
-1.905982	C O	0.002472639
-2.164653	C P	-0.1574877
-2.164653	C R	-0.1448706
-2.164653	C S	-0.1148391
-2.020442	C V	-0.4777438
-2.164653	C W	-0.09191232
-2.164653	C Z	-0.1480387
-1.905982	C a	0.004084647
-2.164653	C d	-0.1661119
-1.10721	C e	-0.1986538
-1.402305	C h	-0.03512955
-1.50515	C i	-0.02279402
-1.905982	C l	-0.2738214
-0.6600519	C o	-0.296563
-1.50515	C r	-0.182162
-2.164653	C y	-0.1514822
-2.164653	C é	-0.1479657
-1.668004	D '	-0.2794844
-1.926675	D -	-0.1631976
-1.926675	D 8	-0.1497922
-1.164327	D </s>
-1.782464	D A	-0.1107569
-1.926675	D B	-0.1598189
-1.926675	D D	-0.1613735
-1.164327	D E	0.1319381
-1.267172	D F	-0.6015714
-1.926675	D G	-0.1543224
-1.926675	D I	-0.104398
-1.39211	D O	-0.03493012
-1.926675	D P	-0.1492869
-1.926675	D S	-0.1611003
-1.39211	D U	-0.1100676
-1.782464	D V	-0.1224297
-1.782464	D X	-0.1394792
-1.926675	D Y	-0.1460439
-1.39211	D a	-0.2606222
-1.668004	D e	0.2118044
-1.39211	D i	-0.06796952
-1.39211	D o	0.218615
-1.926675	D s	0.04444876
-0.9661418	D u	-0.08572008
-1.926675	D è	-0.09760239
-1.15246	D é	-0.3771137
-2.194164	E -	-0.1641463
-2.194164	E 1	-0.08183221
-2.194164	E 9	-0.1496484
-0.6895626	E </s>
-2.049953	E A	-0.4967392
-2.194164	E B	-0.1598189
-1.659599	E C	-0.1538538
-1.659599	E D	-0.08922373
-1.659599	E E	0.02078462
-2.049953	E F	-0.1311971
-1.935493	E I	-0.502706
-2.194164	E K	-0.1420896
-1.419948	E L	-0.32635
-1.659599	E M	-0.1003538
-0.9606293	E N	-0.01917362
-2.194164	E O	-0.1483211
-2.049953	E P	-0.1441145
-1.057539	E R	-0.2798955
-1.233631	E S	-0.3763939
-1.233631	E T	-0.1662796
-1.935493	E U	-0.03463462
-2.194164	E V	-0.1554489
-2.194164	E W	-0.1460439
-2.194164	E Y	-0.1460439
-2.194164	E Z	-0.132366
-2.194164	E c	-0.1655826
-2.194164	E f	-0.1148858
-1.659599	E l	-0.2736682
-2.194164	E m	-0.1164029
-1.935493	E n	0.1663386
-1.659599	E p	-0.2883632
-1.659599	E s	-0.3272146
-1.659599	E t	-0.1825523
-2.049953	E u	-0.4086897
-1.789837	F 0	-0.1510338
-1.789837	F 3	0.009545311
-1.789837	F 4	0.02311812
-0.6184504	F </s>
-1.789837	F A	-0.1622824
-1.255273	F E	-0.1344756
-1.645626	F F	-0.01393577
-1.789837	F G	-0.1578112
-1.255273	F I	-0.09894849
-1.789837	F M	-0.1627623
-1.255273	F P	-0.1452384
-1.255273	F R	-0.08444705
-1.789837	F U	-0.1588687
-1.789837	F X	-0.1532234
-1.789837	F Z	-0.1480387
-1.531166	F a	-0.1220065
-1.645626	F e	-0.4470538
-1.130334	F i	-0.2277678
-1.789837	F l	-0.03201082
-1.645626	F o	0.1246208
-1.645626	F r	0.02865547
-1.645626	F u	-0.06444524
-1.700896	G 2	-0.1398434
-1.700896	G 7	-0.1412401
-1.700896	G 8	-0.1343613
-1.442225	G </s>
-1.700896	G A	-0.1609885
-1.556685	G D	-0.1369424
-1.442225	G E	-0.04731552
-1.700896	G I	-0.104398
-1.700896	G J	-0.1564159
-1.556685	G O	-0.1383466
-1.556685	G R	-0.09200212
-1.700896	G S	-0.162646
-1.700896	G T	-0.1583093
-1.556685	G U	-0.144585
-1.700896	G W	-0.1460439
-1.556685	G Z	-0.112851
-1.700896	G a	-0.1389188
-1.166331	G e	-0.091236
-1.700896	G l	-0.1283485
-1.556685	G o	-0.3414561
-1.041393	G r	-0.06684843
-1.041393	G é	-0.7076085
-1.700896	H 1	-0.1577194
-0.6892102	H 4	-0.4155989
-1.700896	H 5	-0.1409918
-1.700896	H 9	-0.1496484
-1.556685	H </s>
-1.166331	H A	-0.3158256
-1.700896	H B	-0.1008672
-1.041393	H E	-0.7596039
-1.700896	H G	-0.1543224
-1.556685	H I	-0.4530779
-1.556685	H L	-0.1554711
-1.700896	H O	-0.08137433
-1.556685	H R	-0.1194334
-1.556685	H U	-0.09082522
-1.556685	H W	-0.4405921
-1.556685	H Z	-0.1287075
-1.041393	H a	-0.2195259
-1.700896	H e	-0.1480021
-1.556685	H o	-0.03677712
-1.700896	H u	-0.1603981
-1.932505	I 2	-0.0759761
-0.8750613	I </s>
-1.673833	I A	-0.08717289
-1.932505	I B	-0.1542641
-1.932505	I C	-0.1611195
-1.932505	I D	-0.1357301
-1.170156	I E	0.03709483
-1.788294	I F	-0.3956159
-1.788294	I G	-0.1378795
-1.932505	I I	-0.1614429
-0.9719713	I L	-0.9966781
-1.273001	I M	-0.7317894
-1.170156	I N	-0.3209513
-1.932505	I O	-0.08137433
-1.788294	I P	-0.154553
-1.788294	I R	-0.4635656
-1.788294	I S	-0.08063328
-1.273001	I T	-0.4048344
-1.788294	I V	-0.1492085
-1.932505	I X	-0.1478623
-1.932505	I Y	-0.1460439
-1.788294	I l	-0.1250633
-1.170156	I n	-0.7433645
-1.932505	I s	-0.1403347
-0.4336556	J '	0.4176486
-1.637227	J 4	-0.1583093
-1.637227	J 5	-0.1475227
-1.637227	J A	-0.1303338
-1.637227	J E	-0.06725188
-1.637227	J F	-0.1594421
-1.637227	J L	-0.1626056
-1.637227	J N	-0.1621504
-1.493016	J O	-0.490752
-1.637227	J W	-0.1460439
-1.493016	J a	-0.1094141
-1.378556	J e	-0.247383
-1.378556	J o	-0.0531785
-1.493016	J u	-0.09428587
-1.117352	K </s>
-1.261563	K C	-0.1623828
-1.261563	K F	-0.1594421
-1.117352	K H	-0.1453358
-1.261563	K L	-0.1610438
-1.261563	K M	-0.1627623
-1.117352	K N	-0.09625841
-1.261563	K U	-0.1588687
-1.261563	K Y	-0.1376961
-1.261563	K a	-0.1291762
-1.261563	K i	-0.1092386
-1.261563	K m	-0.1599509
-1.261563	K o	-0.1495924
-1.032529	L '	0.1018505
-1.900004	L 1	-0.1283083
-2.044215	L 5	-0.1409918
-2.044215	L 6	-0.1187646
-2.044215	L 7	-0.1593069
-1.27	L </s>
-1.384712	L A	-0.2771503
-0.7314993	L E	-0.1045533
-1.900004	L G	-0.1378795
-2.044215	L H	-0.1543224
-1.384712	L I	-0.07612154
-2.044215	L J	-0.1564159
-2.044215	L K	-0.1320667
-0.9453791	L L	-0.6030791
-1.900004	L M	-0.139558
-2.044215	L O	-0.1483211
-2.044215	L R	-0.1448706
-2.044215	L T	-0.06963594
-1.900004	L U	-0.144585
-1.900004	L W	-0.06745596
-2.044215	L X	-0.00517793
-1.785544	L a	-0.07272699
-1.281867	L e	0.09343423
-1.27	L i	0.02162509
-1.384712	L o	-0.2446976
-2.044215	L u	-0.1373918
-1.900004	L y	-0.509157
-2.061765	M 1	-0.1377466
-1.917554	M 4	-0.1274967
-2.061765	M 6	-0.1588687
-2.061765	M 8	-0.1230803
-1.287549	M </s>
-1.299416	M A	-0.1118174
-1.917554	M B	-0.1473425
-1.402261	M E	0.1009429
-2.061765	M H	-0.1543224
-1.5272	M I	-0.03913884
-2.061765	M K	-0.1320667
-2.061765	M L	-0.1610438
-2.061765	M M	-0.1441845
-1.287549	M O	-0.5324348
-1.402261	M P	-0.1379436
-1.917554	M S	-0.1539088
-2.061765	M U	-0.1303338
-2.061765	M V	-0.1453566
-2.061765	M W	-0.1460439
-2.061765	M X	-0.00517793
-2.061765	M Y	-0.1376961
-0.6618987	M a	0.06079799
-0.9629287	M e	0.1173195
-1.5272	M i	-0.3162009
-2.061765	M m	0.002101734
-1.004321	M o	0.03491586
-2.061765	M r	-0.08595256
-1.402261	M u	-0.05175873
-2.061765	M y	-0.1514822
-1.462398	N '	0.1709363
-1.852752	N 1	-0.04707011
-1.996963	N 5	-0.1475227
-1.996963	N 6	-0.1187646
-0.9852768	N </s>
-1.337459	N A	-0.1115518
-1.996963	N C	-0.1611195
-1.462398	N D	-0.108286
-1.738291	N E	-0.07266518
-1.337459	N G	-0.2610378
-1.852752	N H	-0.4738331
-1.036429	N I	-0.3004408
-1.996963	N J	-0.1523605
-1.996963	N L	-0.1626056
-1.996963	N M	-0.1627623
-1.337459	N N	-0.09390502
-1.738291	N O	-0.05339579
-1.852752	N P	-0.1360517
-1.462398	N R	-0.1092671
-1.036429	N S	-0.1948778
-1.462398	N T	-0.05474953
-1.996963	N U	-0.1588687
-1.996963	N Y	-0.1376961
-1.996963	N Z	-0.1405278
-1.852752	N a	-0.09397916
-1.996963	N e	-0.02454476
-1.036429	N o	-0.1184307
-1.996963	N u	-0.1595127
-1.996963	N é	-0.1571656
-1.920766	O 1	-0.1577194
-1.662095	O </s>
-1.920766	O B	-0.1542641
-1.920766	O C	-0.1623828
-1.920766	O D	-0.1357301
-1.920766	O G	-0.1578112
-1.920766	O H	-0.1543224
-1.261263	O I	-0.2160822
-1.386202	O L	-0.088923
-1.920766	O M	-0.1627623
-0.7493795	O N	-0.2824339
-1.662095	O O	-0.2135912
-1.920766	O P	-0.1574877
-1.146551	O R	-0.07892174
-1.920766	O S	-0.1594447
-1.386202	O T	-0.2341368
-1.158418	O U	-0.119665
-1.776555	O X	-0.1339446
-1.776555	O Z	-0.1123078
-1.386202	O c	-0.5592859
-1.920766	O h	-0.1647863
-1.920766	O l	-0.1023876
-1.920766	O p	-0.1104458
-1.662095	O r	-0.05020536
-1.386202	O u	-0.3375864
-1.943934	P 1	-0.1577194
-1.943934	P 3	0.009545311
-1.685263	P </s>
-1.409369	P A	-0.2817362
-1.409369	P C	-0.1538538
-1.943934	P D	-0.1613735
-1.284431	P E	-0.1825511
-1.943934	P H	-0.1578112
-1.943934	P I	-0.1594166
-1.943934	P J	-0.1564159
-1.943934	P K	-0.1420896
-1.799723	P M	-0.1589454
-1.799723	P O	-0.1428513
-1.943934	P P	-0.1615762
-1.409369	P R	-0.2912651
-1.799723	P S	-0.08063328
-1.943934	P U	-0.1303338
-1.799723	P Z	-0.1208516
-0.8864907	P a	-0.07135901
-1.181586	P e	-0.2867976
-1.943934	P h	-0.1048403
-1.799723	P i	-0.4685562
-1.799723	P l	-0.09679272
-0.845098	P o	-0.8170229
-0.9834008	P r	-0.4973131
-1.943934	P é	-0.1265245
-1.203571	Q 0	-0.1618688
-1.203571	Q D	-0.1613735
-1.203571	Q G	-0.1578112
-1.203571	Q K	-0.1420896
-1.203571	Q Q	-0.1384806
-1.203571	Q W	-0.1460439
-1.05936	Q Y	-0.1245257
-1.203571	Q Z	-0.1480387
-0.9449002	Q u	-0.8343332
-2.086827	R 1	-0.1577194
-2.086827	R 3	-0.1568516
-0.9502025	R </s>
-1.312612	R A	-0.1712838
-1.942616	R B	-0.05205385
-1.427324	R C	-0.2830493
-1.126294	R D	-0.1787945
-0.8252638	R E	-0.1969599
-1.942616	R F	-0.03380445
-2.086827	R G	-0.1505679
-2.086827	R H	-0.1543224
-1.312612	R I	-0.1586051
-2.086827	R K	-0.1320667
-2.086827	R L	-0.0774013
-1.942616	R M	-0.1353524
-1.552263	R N	-0.1149127
-1.552263	R O	-0.06850252
-2.086827	R R	-0.09620356
-1.942616	R S	-0.08063328
-1.942616	R T	-0.1497524
-1.942616	R U	-0.1186489
-2.086827	R W	-0.1376961
-0.9154404	R e	-0.4444335
-2.086827	R h	-0.1258717
-2.086827	R i	-0.1664104
-1.427324	R o	-0.162127
-1.942616	R u	-0.09394241
-2.086827	R w	-0.1084756
-1.324479	R é	-0.1964128
-1.904458	S 1	-0.0682594
-2.048669	S 7	-0.1324662
-2.048669	S 8	-0.1343613
-0.7871061	S </s>
-0.9498334	S A	-0.1627189
-1.789998	S C	-0.4801603
-1.789998	S E	-0.44651
-2.048669	S G	-0.1543224
-1.904458	S I	-0.1034777
-2.048669	S K	-0.1420896
-1.904458	S M	-0.148005
-2.048669	S O	-0.1352924
-2.048669	S P	-0.1492869
-1.904458	S R	-0.1505215
-1.904458	S S	-0.5081246
-1.789998	S T	-0.1094608
-1.789998	S U	-0.1837423
-2.048669	S W	-0.1376961
-0.9120448	S a	0.1945137
-1.286321	S e	0.00285165
-1.514105	S i	-0.2865968
-1.274454	S o	0.2364693
-2.048669	S t	-0.03731625
-1.389166	S u	-0.06996161
-2.048669	S é	-0.1468019
-1.870357	T 4	-0.1302668
-1.726146	T 9	0.2246607
-0.69897	T </s>
-1.335792	T A	-0.1382814
-1.870357	T B	-0.1249236
-1.870357	T D	-0.1424123
-1.611686	T E	-0.2862738
-1.726146	T G	-0.1488972
-1.870357	T H	-0.1251533
-1.870357	T I	-0.1175595
-1.870357	T L	-0.0774013
-1.870357	T M	-0.1612631
-1.611686	T O	0.0113423
-1.870357	T Q	-0.1384806
-1.335792	T R	-0.2698658
-1.870357	T S	-0.1611003
-1.210853	T T	-0.1272119
-1.726146	T V	-0.1059129
-1.870357	T W	-0.09191232
-1.870357	T Y	-0.1376961
-1.726146	T a	-0.1488045
-1.335792	T e	-0.2643618
-1.870357	T h	-0.1367881
-1.870357	T i	-0.1160698
-1.210853	T o	-0.681505
-1.335792	T r	-0.07398158
-1.870357	T é	-0.1479657
-1.756413	U 0	-0.1462332
-1.756413	U 1	-0.1577194
-1.756413	U 3	-0.1417224
-1.756413	U 6	-0.1588687
-1.09691	U </s>
-1.756413	U B	-0.1571407
-1.756413	U C	-0.1046589
-1.756413	U D	-0.1357301
-1.612202	U E	-0.01659712
-1.756413	U F	-0.1594421
-1.756413	U G	-0.1578112
-1.221849	U I	-0.08232453
-1.09691	U L	-0.0373393
-1.756413	U M	-0.1612631
-1.497742	U N	-0.1614428
-1.756413	U Q	-0.1269098
-1.612202	U R	-0.110862
-1.612202	U S	-0.4378136
-1.612202	U T	-0.1274967
-1.09691	U V	-0.1204697
-1.09691	U X	-0.5877843
-1.756413	U Y	-0.1376961
-1.756413	U b	-0.1452343
-1.497742	U n	-0.4539474
-1.082568	V </s>
-1.856784	V A	-0.1303338
-1.856784	V B	-0.1249236
-1.856784	V D	-0.1357301
-1.598113	V E	-0.1518523
-1.322219	V F	0.02177978
-1.598113	V I	-0.07065059
-1.712573	V O	-0.4839722
-1.856784	V P	-0.1615762
-1.322219	V Q	-0.06286117
-1.856784	V R	-0.09620356
-1.856784	V S	-0.1611003
-1.856784	V U	-0.1303338
-1.856784	V V	-0.1604641
-1.856784	V Y	-0.1376961
-1.856784	V Z	-0.1405278
-1.598113	V a	-0.4627144
-1.197281	V e	-0.113761
-0.845098	V i	-0.009672344
-0.8962505	V o	-0.3095164
-1.712573	V u	-0.07997676
-1.856784	V é	-0.1381706
-1.336197	W 0	-0.1462332
-1.336197	W 3	-0.1568516
-1.336197	W 6	-0.1525166
-1.191986	W </s>
-1.336197	W C	-0.1623828
-0.8016323	W E	-0.05920915
-0.8016323	W I	-0.07720659
-1.191986	W L	-0.1384082
-1.336197	W P	-0.1433781
-1.336197	W T	-0.06963594
-1.336197	W V	-0.1453566
-1.336197	W W	-0.1460439
-1.336197	W Z	-0.132366
-1.519841	X 0	-0.1462332
-0.5081555	X </s>
-1.519841	X E	-0.1614781
-1.519841	X F	-0.1417224
-1.519841	X M	-0.1627623
-1.519841	X P	-0.1574877
-1.519841	X Q	-0.1384806
-1.519841	X R	-0.161561
-1.519841	X S	-0.1148391
-1.519841	X T	-0.1389624
-1.37563	X V	-0.4777438
-0.7456259	X X	-0.3479141
-1.37563	X Y	-0.1157497
-1.519841	X Z	-0.1480387
-1.336197	Y 1	-0.1577194
-1.336197	Y 2	-0.1509409
-1.336197	Y 4	-0.1557946
-1.336197	Y 9	-0.1496484
-1.336197	Y A	-0.1524213
-1.336197	Y E	-0.1637597
-1.336197	Y F	-0.1594421
-1.191986	Y H	-0.05615185
-1.336197	Y K	-0.1420896
-1.191986	Y L	-0.1367569
-1.191986	Y M	-0.1256875
-1.336197	Y N	-0.1246538
-1.336197	Y Y	-0.1460439
-1.191986	Y Z	-0.1123078
-1.336197	Y v	0.04449828
-1.379663	Z 1	-0.1014278
-1.379663	Z 2	-0.1398434
-1.379663	Z 3	-0.108554
-1.379663	Z 4	-0.1389624
-1.120991	Z </s>
-1.379663	Z C	-0.1635632
-1.379663	Z E	-0.1637597
-1.235452	Z F	-0.1522201
-1.379663	Z H	-0.1543224
-1.379663	Z K	-0.1320667
-1.379663	Z N	-0.1621504
-1.235452	Z P	-0.1441145
-1.235452	Z T	-0.1499134
-1.379663	Z Z	-0.132366
-2.787106	a -	-0.3283938
-1.745713	a </s>
-3.446609	a F	-0.1417224
-1.420683	a b	-0.6689792
-1.210189	a c	0.3543023
-1.755698	a d	-0.9163324
-3.446609	a e	-0.1503768
-2.347773	a f	-0.8945581
-1.416038	a g	-0.9381412
-3.302398	a h	-0.1465503
-0.8280647	a i	-1.458956
-2.347773	a j	-0.837196
-3.446609	a k	-0.1154412
-1.083815	a l	-0.9494602
-1.603836	a m	-0.2698271
-0.7388586	a n	-0.386461
-2.912045	a o	-0.2893939
-1.582986	a p	-0.4042393
-2.672394	a q	1.318002
-1.092501	a r	0.3899198
-1.475352	a s	-0.3391129
-0.9373797	a t	-0.6020925
-1.210189	a u	-0.9691172
-1.486076	a v	0.01647019
-2.684261	a x	-0.2599255
-2.046743	a y	0.05375683
-3.187938	a z	0.5484457
-3.302398	a ç	-0.4585916
-3.446609	a é	-0.1265245
-2.243038	a î	-0.5193291
-3.302398	a ï	0.7404045
-0.9374445	b a	-0.3819101
-2.607671	b b	-0.1452343
-2.463461	b d	-0.1077751
-1.319779	b e	-0.3156946
-0.7793763	b i	-0.6691793
-2.463461	b j	-0.4419078
-0.5634566	b l	-1.304461
-0.8512583	b o	-0.3693345
-0.9374445	b r	-0.7220973
-1.595986	b s	-0.1172483
-1.833456	b t	-0.5411304
-1.374137	b u	0.3196757
-2.607671	b y	-0.1604772
-1.436285	b é	-0.2985476
-2.607671	b ê	0.4462379
-3.044851	c '	-0.438979
-3.044851	c -	-0.3350179
-1.985491	c </s>
-1.127297	c a	-0.259439
-1.468861	c c	-0.4579301
-3.189062	c d	-0.1661119
-0.8198648	c e	-0.5241431
-0.919431	c h	-0.2724025
-0.9823995	c i	-0.5197402
-2.654497	c k	0.07912047
-1.459521	c l	-0.9918871
-3.189062	c m	-0.1599509
-0.6039888	c o	-0.9392015
-3.189062	c p	-0.1104458
-2.228529	c q	1.002406
-1.468861	c r	-0.9442458
-3.189062	c s	0.04444876
-1.027815	c t	-0.1095971
-1.325439	c u	-0.3728964
-3.044851	c y	-0.05315749
-2.090226	c è	-0.140102
-1.654497	c é	-0.5263687
-3.189062	c ô	0.5867817
-0.8094607	d '	0.1856264
-3.000443	d -	-0.1554805
-1.363216	d </s>
-1.235429	d a	-0.2441521
-3.000443	d b	-0.1006174
-0.730812	d e	-0.6553807
-3.000443	d g	0.005970865
-2.465878	d h	-0.5723022
-0.7756823	d i	0.04576683
-2.238095	d m	-0.3113689
-3.000443	d n	-0.1464369
-1.164848	d o	-0.3188941
-1.123456	d r	-1.302058
-1.829056	d s	-0.9351333
-3.000443	d t	-0.03731625
-1.363216	d u	-0.5892594
-3.000443	d y	-0.06091236
-2.226228	d è	0.007244378
-0.7999848	d é	0.08358479
-3.000443	d î	-0.1286066
-2.465878	d û	-0.3003999
-2.386003	e -	-0.1779782
-0.5545601	e </s>
-2.178878	e a	-0.8042865
-3.164155	e b	-0.035908
-1.677488	e c	-0.6050041
-2.641276	e d	-0.2685291
-3.698719	e e	-0.166459
-2.164155	e f	-0.7561612
-2.599883	e g	-0.5840583
-1.885401	e i	-0.6415554
-3.698719	e j	0.07543926
-3.698719	e k	-0.1305008
-1.437156	e l	-0.9588223
-1.208306	e m	-1.269304
-0.7650579	e n	-0.4637316
-3.039216	e o	0.1164628
-2.084973	e p	-0.1666941
-3.554508	e q	1.441423
-0.8378186	e r	-1.055102
-0.9484288	e s	-0.8142273
-1.57309	e t	0.009327769
-1.378825	e u	-0.7358503
-1.908882	e v	0.1572032
-1.870424	e x	-1.032394
-3.164155	e y	-0.03349653
-1.524004	e z	-1.073149
-3.164155	e ç	-0.05407962
-2.688887	f -	0.01366188
-1.184286	f </s>
-0.8185304	f a	-0.4871912
-1.029384	f e	-0.6176152
-0.9502025	f f	-0.7368027
-0.5822257	f i	-0.7410086
-1.914672	f l	-0.487136
-0.8532925	f o	-1.266213
-1.309224	f r	-0.4085418
-1.631444	f s	-0.830398
-1.631444	f u	-0.6171271
-2.544676	f è	-0.2486513
-1.251233	f é	-1.470683
-2.688887	f ê	0.4462379
-1.855002	g </s>
-0.980123	g a	-0.5443556
-0.4843597	g e	-0.4548525
-1.957847	g g	0.07367422
-1.161967	g i	-0.1447857
-1.518514	g l	-0.4954916
-1.559907	g m	-0.872745
-0.9471228	g n	-1.32499
-1.855002	g o	-0.1286288
-0.916454	g r	-1.007005
-2.473139	g t	0.08401446
-1.144933	g u	-0.7030935
-2.473139	g â	-0.3936158
-2.473139	g è	-0.2486513
-1.198179	g é	-0.5754112
-2.473139	g ê	-0.5020941
-2.53745	h 3	-0.1568516
-2.278779	h </s>
-0.4800069	h a	-0.4559172
-2.53745	h b	-0.1132472
-0.5823799	h e	-0.01334107
-1.048643	h i	-0.05111611
-2.393239	h l	-0.08682486
-2.278779	h n	-0.3882517
-0.877947	h o	0.015297
-2.002886	h r	-0.2415848
-1.400826	h u	-0.4332308
-2.53745	h w	-0.0832896
-2.53745	h y	-0.1586304
-2.002886	h è	0.1473044
-1.178977	h é	-0.1766438
-2.393239	h ô	-0.1193039
-2.272151	i -	-0.2684473
-1.365457	i </s>
-3.505686	i B	-0.1542641
-1.70788	i a	-0.5374125
-1.943092	i b	-0.3265301
-1.402919	i c	-0.6429861
-1.635329	i d	-0.6198042
-0.9918764	i e	-1.107541
-1.579011	i f	-1.223386
-1.785485	i g	-0.6238945
-2.971121	i h	0.04161941
-3.505686	i j	-0.1446298
-1.266399	i l	-0.8670841
-1.465971	i m	-0.7057635
-0.9079129	i n	-0.3986148
-1.005763	i o	-1.465241
-2.126023	i p	-0.2007234
-1.700054	i q	0.2007737
-1.164941	i r	-1.100066
-0.8753708	i s	-0.8425695
-0.9596917	i t	0.2507573
-3.361475	i u	-0.09394241
-1.545152	i v	0.006515145
-2.217793	i x	-0.6500991
-2.846182	i z	-0.2825395
-1.929729	i è	-1.534009
-1.868459	i é	-1.070531
-0.7575647	j '	-0.2648815
-1.307932	j a	-0.2048254
-0.8087173	j e	-0.9431363
-0.3693846	j o	-1.347994
-0.8087173	j u	-0.58277
-1.926069	j à	0.5261669
-1.098836	k -	-0.1641463
-1.098836	k </s>
-1.098836	k a	-0.1299482
-0.5642715	k e	0.0163942
-0.954625	k i	-0.1367705
-1.098836	k l	-0.1283485
-1.098836	k m	-0.1599509
-1.098836	k y	-0.1622005
-0.9569484	l '	-0.1918627
-3.218512	l -	0.01366188
-1.144035	l </s>
-1.074709	l a	-0.1819457
-2.959841	l c	-0.76064
-3.074301	l d	-0.4259244
-0.5744811	l e	-0.769941
-3.218512	l f	-0.10095
-2.683947	l g	-0.1069323
-2.456163	l h	-0.0305782
-0.8622153	l i	-0.34654
-0.8962505	l l	-1.43208
-2.559008	l m	-0.2293295
-3.218512	l n	-0.1464369
-1.192585	l o	-0.03708696
-3.218512	l p	-0.1591614
-3.074301	l q	1.441423
-1.71391	l s	-1.056463
-1.984977	l t	0.02317846
-1.517616	l u	-0.09482861
-3.218512	l v	-0.09896263
-2.683947	l y	-0.04974127
-2.559008	l à	0.3202114
-1.984977	l è	-0.1788362
-1.375739	l é	-0.2733384
-2.683947	l ô	0.1512676
-1.246129	m '	-0.7699984
-3.109752	m -	0.01366188
-3.109752	m 2	0.006998137
-1.82186	m </s>
-0.7946305	m a	-0.2263037
-1.461244	m b	-0.4510632
-0.4924025	m e	-1.132131
-1.12289	m i	-0.431749
-1.107826	m m	-1.798951
-2.335537	m n	-0.6812917
-1.194977	m o	-0.2347422
-0.962404	m p	-0.2526257
-3.109752	m t	-0.1663316
-1.496007	m u	-0.8864309
-3.109752	m ²	0.7404045
-2.965541	m è	-0.1282099
-1.408856	m é	-0.2071542
-2.450249	m ê	0.5189619
-2.189507	n '	-0.1984169
-2.340775	n -	-0.5761068
-0.9428345	n </s>
-1.344409	n a	-0.3827436
-1.167103	n c	-0.7861807
-1.134398	n d	-1.103523
-1.167103	n e	-0.5055172
-1.840172	n f	-0.5733701
-1.776503	n g	-0.7880541
-2.817896	n h	-0.3785041
-1.370738	n i	-0.1665087
-2.715051	n j	-0.2501719
-3.477399	n k	-0.02824326
-3.477399	n l	-0.03201082
-3.333188	n m	-0.4865806
-1.289622	n n	-1.674974
-1.587447	n o	-0.1018152
-3.477399	n p	-0.1104458
-2.215836	n q	0.8362874
-3.218728	n r	-0.9379191
-1.03079	n s	-0.9102994
-0.5312148	n t	-1.061969
-1.671768	n u	-0.853969
-1.712386	n v	-1.011098
-2.942834	n y	-0.2524205
-3.333188	n z	-0.1481927
-2.942834	n °	0.7404045
-1.627564	n é	-0.7425074
-3.477399	n ê	0.4462379
-2.814913	o -	-0.4218522
-2.061585	o </s>
-1.70097	o b	-0.2782567
-1.416973	o c	-0.2010188
-1.860671	o d	-0.4350293
-2.689975	o e	-0.7331737
-1.969815	o f	-0.6780604
-2.145906	o g	-0.182471
-3.205267	o h	-0.1233544
-1.171461	o i	-1.033428
-3.205267	o j	-0.4419078
-1.53616	o l	-0.2667307
-1.079847	o m	-0.2881233
-0.4818019	o n	-0.08199716
-2.587129	o o	-0.3230059
-1.638822	o p	-0.4334742
-2.292034	o q	0.9152559
-1.002	o r	0.03606236
-1.383549	o s	-0.2179854
-1.576031	o t	0.9156126
-0.799274	o u	-0.5781684
-2.115943	o v	0.2408726
-3.349478	o x	-0.1408024
-1.877061	o y	-1.018122
-3.205267	o ë	-0.1056517
-2.689975	o î	-0.1413977
-3.349478	o ù	0.7404045
-2.587129	o û	-0.7240006
-2.260494	p </s>
-0.8633229	p a	-0.3839864
-0.9165684	p e	-0.2203306
-1.773146	p h	-0.6042165
-1.579326	p i	-0.226463
-1.027876	p l	-1.181581
-0.7897455	p o	-0.6629898
-1.28707	p p	-0.59279
-0.6174307	p r	-1.914964
-2.272361	p s	-0.3192546
-1.364482	p t	-0.8103272
-1.579326	p u	-0.60869
-2.074176	p è	-0.7629174
-1.314508	p é	-0.3112779
-2.375206	p ê	-0.0009201169
-2.776038	p ô	-0.3120918
-2.315122	q </s>
-2.315122	q o	-0.13625
-0.004825544	q u	-2.069963
-2.498157	r -	-0.1092676
-0.7711586	r </s>
-0.9681	r a	0.4552048
-2.24828	r b	-0.5858045
-1.818931	r c	-0.5216085
-1.808947	r d	-0.1378706
-0.5944646	r e	-0.3221239
-2.735628	r f	-0.4094132
-1.933886	r g	-0.674902
-1.098291	r i	1.010813
-2.54931	r l	-0.212255
-1.607302	r m	-1.15121
-1.799187	r n	-1.396426
-1.204427	r o	0.5477121
-2.85034	r p	-0.5621917
-2.54931	r q	1.137317
-1.583168	r r	-1.650077
-1.384214	r s	-0.5299683
-1.34181	r t	-0.7864607
-2.130181	r u	-0.2363426
-1.961038	r v	-0.5607371
-2.85034	r y	-0.6528516
-3.365632	r â	-0.1172858
-3.251172	r ç	-0.6014364
-2.306272	r è	-1.18882
-1.100217	r é	-0.6988686
-2.306272	r ê	-0.1858878
-3.509843	r ô	-0.143567
-3.365632	r û	-0.4783476
-1.98246	s '	-0.204505
-2.132222	s -	-0.2036141
-0.4147473	s </s>
-1.232337	s a	-0.5458301
-1.794469	s c	-0.3528033
-3.275903	s d	-0.4892062
-0.9394251	s e	-0.5160458
-2.321278	s f	-0.4777715
-3.420114	s g	0.005970865
-2.645899	s h	-0.3799566
-1.081638	s i	-0.295851
-3.420114	s k	-0.02824326
-3.420114	s l	-0.1023876
-2.321278	s m	-0.3518293
-1.290789	s o	-1.506299
-1.549758	s p	-0.8924967
-2.18658	s q	0.7525285
-1.066006	s s	-1.969431
-1.2454	s t	-0.6648647
-1.329247	s u	-0.7313378
-3.420114	s w	-0.0832896
-2.88555	s y	-0.3534677
-2.88555	s è	-0.07657048
-1.505338	s é	-0.6293527
-3.275903	s û	-0.4783476
-2.314394	t -	-0.5882065
-0.5894358	t </s>
-1.061137	t a	-0.8480844
-3.451018	t b	-0.1132472
-3.451018	t c	-0.1620321
-0.7422972	t e	-0.7318079
-3.451018	t g	0.005970865
-3.192347	t h	0.4569316
-0.7570873	t i	-0.2076037
-1.512762	t o	-0.193432
-3.306808	t p	-0.08855292
-1.083945	t r	-1.375398
-1.449093	t s	-1.593494
-1.530252	t t	-1.046545
-1.389254	t u	-0.4824073
-3.306808	t y	-0.509157
-3.451018	t â	0.2313941
-3.192347	t è	-0.2147844
-1.18406	t é	-1.949347
-2.791515	t ê	-0.1083974
-2.791515	t ô	0.03214639
-1.919078	u '	0.1378055
-2.973123	u -	-0.3532946
-1.368171	u </s>
-1.551101	u a	-0.3883764
-1.759377	u b	-0.1696005
-1.655837	u c	-0.2067764
-1.852131	u d	-0.4290192
-0.8604833	u e	-0.440943
-2.457578	u f	-0.5562822
-1.852131	u g	-0.5754609
-1.919078	u h	-1.244529
-1.187579	u i	-0.6565159
-2.457578	u j	-0.2618145
-1.234831	u l	-0.4037067
-1.794139	u m	-0.4673005
-1.46678	u n	-0.3987446
-2.457578	u o	-0.6198233
-1.711953	u p	0.1428738
-3.087583	u q	1.441423
-0.6624672	u r	0.01463127
-1.053777	u s	-0.6515589
-1.144967	u t	-0.739416
-1.311028	u v	-0.5776789
-1.433988	u x	-0.9832133
-3.087583	u y	-0.4458044
-3.087583	u z	-0.5061461
-1.630283	u é	-1.222116
-3.231794	u ê	0.4462379
-0.8412984	v a	-0.5249556
-0.4146681	v e	-0.656744
-0.7594771	v i	-0.08565921
-0.7960709	v o	-0.6461562
-1.263751	v r	-0.6841764
-1.755112	v u	-0.9829931
-2.153052	v è	0.03226018
-1.292714	v é	-0.2371697
-2.277991	v ê	0.01072383
-2.812556	v ô	0.5867817
-0.9025413	w </s>
-0.9025413	w a	-0.07906082
-0.9025413	w e	-0.166459
-0.7583303	w i	-0.1418771
-0.7583303	w w	-0.01188743
-2.056247	x -	0.08060867
-0.3648635	x </s>
-1.426243	x a	-0.2093849
-1.143015	x c	-0.5474474
-1.029071	x e	-0.17576
-1.239925	x i	-0.1356756
-2.056247	x o	0.07704668
-0.6806168	x p	-0.5442839
-2.056247	x q	1.441423
-1.540955	x t	0.066861
-1.665894	x é	-0.173263
-2.001926	y -	-0.1641463
-0.665729	y </s>
-0.8305393	y a	-0.505899
-2.001926	y c	-0.110839
-2.001926	y d	-0.1405264
-0.5642715	y e	-0.0581789
-2.001926	y i	-0.1198764
-1.857715	y l	0.05800872
-1.857715	y m	-0.481201
-2.001926	y n	-0.1551693
-1.857715	y o	-0.3414561
-1.857715	y p	-0.4591256
-1.467361	y r	-0.189181
-1.743255	y s	0.1681826
-2.001926	y u	-0.06000986
-0.9902402	y é	-0.4777603
-2.001926	y û	-0.1404091
-0.9309191	z -	-0.8107319
-0.1006702	z </s>
-1.684247	z a	-0.2526449
-1.684247	z e	-0.4600588
-1.559308	z i	-0.4042429
-2.0746	z o	0.1246208
-2.218811	z y	-0.06091236
-0.5345645	° 9	-0.1496484
-0.5345645	° </s>
-0.5345645	° X	-0.08055676
-0.05744325	² </s>
-0.05744325	É t	-0.1270792
-1.098836	à -	-0.1621829
-0.04139268	à </s>
-0.2218488	â c	0.03821602
-0.6122023	â t	-0.01600878
-1.171387	ç a	-0.1586755
-0.9127154	ç o	-0.6933812
-0.4090384	ç u	-0.8776502
-1.320654	è c	-0.5517462
-1.560305	è d	-0.5127586
-1.836199	è g	-0.4934376
-1.332522	è l	-0.7685549
-1.320654	è m	-0.4699987
-1.435367	è n	-0.6905688
-2.09487	è q	1.790103
-0.3384565	è r	-1.717964
-0.8333065	è s	-1.154433
-1.320654	è t	-0.5994287
-1.836199	è v	-0.8543752
-2.466126	é -	-0.5715302
-0.6952739	é </s>
-1.670246	é a	-0.8067638
-1.989005	é b	-0.2640265
-1.072551	é c	-1.097328
-1.455402	é d	-0.8031555
-0.8057348	é e	-1.163703
-1.549672	é f	-0.4957681
-1.549672	é g	-0.7125373
-2.466126	é h	-0.3274749
-2.591065	é i	-0.2504088
-2.591065	é j	-0.1147407
-1.37799	é l	-0.9467096
-1.725763	é m	-0.4134389
-1.511883	é n	-1.623039
-2.981418	é o	-0.4982722
-1.352183	é p	-0.8986981
-2.113943	é q	0.9566486
-1.055349	é r	-1.487631
-1.04288	é s	-1.249744
-1.198954	é t	-0.8182654
-2.981418	é u	-0.109798
-1.511883	é v	1.049118
-2.981418	é ç	-0.3006214
-3.125629	é é	-0.1281496
-1.135663	ê c	-0.5463531
-1.670227	ê l	-0.1283485
-1.135663	ê m	-0.4334123
-1.526016	ê n	-0.1143187
-0.1214222	ê t	-0.7546526
-1.670227	ê v	0.04449828
-0.2142623	ë n	-0.462626
-1.077526	î n	-0.8714262
-0.1326256	î t	-1.040833
-0.3584732	ï </s>
-0.3584732	ï d	-0.07724456
-1.287892	ô l	-0.03201082
-1.287892	ô m	-0.09058682
-1.287892	ô p	-0.1549517
-0.08432089	ô t	-0.5502042
-0.05744325	ù </s>
-1.233534	û </s>
-1.233534	û d	-0.1357684
-1.089324	û l	-0.006345272
-1.089324	û m	-0.3465781
-1.089324	û r	-0.01430665
-0.4711863	û t	-0.3987823

\3-grams:
-0.4968653	0 % </s>
-0.4968653	C ' e	-0.172745
-1.195835	D ' A	-0.2686484
-0.1884403	D ' a	-0.1938173
-0.243038	J ' a	-0.3487384
-1.003322	J ' e	-0.3975945
-1.642993	J ' h	-0.1632218
-1.642993	J ' i	-0.2803556
-1.642993	J ' o	-0.1830037
-1.642993	J ' é	-0.08641194
-0.2894888	L ' a	-0.1292897
-1.451108	L ' e	-0.2652158
-1.451108	L ' o	-0.2279328
-1.451108	L ' u	0.1944147
-0.9739866	N ' a	-0.2762406
-0.9739866	N ' h	-0.208073
-0.9739866	N ' é	-0.08641194
-0.1582235	c ' e	-0.3975945
-1.468785	d ' A	-0.1604653
-2.630404	d ' E	-0.2073687
-1.623009	d ' O	-0.1161607
-0.3931762	d ' a	0.2145039
-0.90309	d ' e	0.9302053
-1.179296	d ' h	0.2466771
-0.8782664	d ' i	0.09033912
-1.230449	d ' o	0.3312863
-1.623009	d ' u	0.3381991
-2.630404	d ' y	0.7827128
-1.054358	d ' é	0.1913784
-2.630404	d ' ê	0.3193534
-0.2552725	j ' a	-0.1742248
-0.595364	j ' e	-0.2757192
-1.752138	j ' o	-0.1830037
-1.752138	j ' y	0.7827128
-1.752138	j ' é	-0.2378272
-2.700985	l ' </s>
-1.726999	l ' A	-0.1843626
-2.700985	l ' E	-0.2073687
-2.700985	l ' U	-0.1161606
-0.3912066	l ' a	0.6220534
-0.7891467	l ' e	0.03545964
-1.539366	l ' h	0.1896153
-0.8239087	l ' i	-0.05939507
-0.9253664	l ' o	0.4481846
-1.544212	l ' u	0.1865797
-1.249877	l ' é	0.2675206
-2.303045	m ' </s>
-0.3590219	m ' a	0.07529688
-0.6600519	m ' e	-0.0245353
-0.80618	m ' i	-0.5492943
-0.9610819	m ' o	-0.1520781
-2.303045	m ' y	0.7827128
-1.329059	m ' é	0.05808192
-0.2762064	n ' a	-0.2218879
-0.7533277	n ' e	-0.01534703
-1.727314	n ' o	-0.2450409
-1.727314	n ' y	0.7827128
-1.727314	n ' é	-0.08641194
-1.087642	n ' ê	0.094504
-0.3802112	s ' a	-0.2600592
-0.90309	s ' e	0.141579
-1.877077	s ' h	-0.1632218
-0.8696815	s ' i	-0.05940723
-1.877077	s ' y	0.7827128
-0.7203028	s ' é	0.3550388
-0.4101745	u ' a	-0.321465
-1.112466	u ' e	-0.06095943
-1.752138	u ' h	-0.208073
-1.112466	u ' i	-0.484892
-1.752138	u ' o	-0.2450409
-1.112466	u ' u	-0.03043476
-0.7781513	u ' à	-0.2471656
-0.7978953	0 - 0	-0.09739803
-0.7978953	0 - 2	-0.2339601
-0.1582235	2 - 3	-0.3931685
-0.4592535	3 - 1	0.09265292
-1.098925	3 - 2	-0.2339601
-1.098925	3 - 7	-0.1161606
-0.9739866	4 - 0	-0.09739803
-0.9739866	4 - 1	-0.2650616
-0.9739866	4 - 3	-0.2590169
-1.399955	5 - 0	-0.2466692
-0.3925602	5 - 1	-0.2507798
-1.399955	5 - 2	-0.2339601
-1.399955	5 - 3	-0.2590169
-1.399955	5 - C	-0.1161606
-0.7978953	6 - 3	-0.2590169
-0.7978953	6 - 8	-0.012591
-1.098925	7 - 1	-0.2650616
-1.098925	7 - 3	-0.2590169
-1.098925	7 - 8	-0.2339601
-1.098925	7 - </s>
-0.7978953	8 - 0	-0.2466692
-0.7978953	8 - 8	-0.012591
-0.4968653	D - R	-0.2073687
-0.4968653	E - B	-0.1161606
-0.4592535	a - </s>
-0.4592535	a - t	-0.3661734
-0.1582235	c - </s>
-0.4968653	d - r	-0.2466692
-0.4101745	e - </s>
-1.752138	e - J	-0.1161606
-0.5905188	e - c	0.1578645
-1.752138	e - j	-0.05723394
-1.752138	e - l	-0.2073687
-1.752138	e - m	0.3400839
-1.752138	e - v	-0.2699454
-0.4968653	f - </s>
-0.5113376	i - </s>
-1.672957	i - b	-0.1161606
-1.033285	i - c	-0.109616
-1.033285	i - d	-0.0541268
-0.69897	i - j	-0.623753
-1.672957	i - t	-0.2541199
-0.4968653	k - e	-0.1161606
-0.4968653	l - </s>
-0.4968653	m - </s>
-0.1760913	n - </s>
-1.576047	n - P	-0.1161606
-1.576047	n - r	-0.09739803
-0.9363748	n - t	-0.3661734
-0.1249387	o - </s>
-0.2894888	r - </s>
-1.451108	r - c	0.1152334
-1.451108	r - l	-0.2073687
-1.451108	r - v	0.7586861
-0.7199192	s - </s>
-1.727314	s - R	-0.2073687
-1.727314	s - U	-0.1161606
-0.7533277	s - c	-0.4512856
-0.7199192	s - j	-0.380497
-1.087642	s - m	0.4495107
-1.727314	s - n	-0.1161606
-1.727314	s - s	-0.2073687
-0.9363748	t - c	-0.4653442
-0.2340832	t - i	0.338367
-1.576047	t - o	-0.1161606
-1.576047	t - à	-0.1161606
-1.576047	t - ê	-0.1161606
-0.1884403	u - </s>
-1.195835	u - d	0.1707226
-0.7978953	x - </s>
-0.7978953	x - c	0.1152334
-0.4968653	y - M	-0.1161606
-0.7199192	z - </s>
-1.727314	z - d	0.1707226
-0.7533277	z - m	-0.2264351
-0.2762064	z - v	0.04139268
-0.4968653	à - d	-0.2541199
-0.1249387	é - </s>
-1.098925	é - r	-0.2466692
-1.098925	- 0 2	0.2325192
-1.098925	- 0 6	0.05451766
-0.4592535	- 0 8	0.1905713
-0.7872496	0 0 0	-0.7421683
-1.944023	0 0 1	-0.09739803
-1.944023	0 0 3	-0.09739803
-1.944023	0 0 4	0.4384747
-1.944023	0 0 5	0.3193534
-1.944023	0 0 6	0.05451766
-1.304352	0 0 7	0.1152345
-1.944023	0 0 8	0.1152334
-0.2710668	0 0 </s>
-1.341963	1 0 -	-0.2073687
-0.3679768	1 0 0	0.1022869
-0.7022916	1 0 </s>
-1.341963	1 0 h	-0.1161606
-1.700985	2 0 -	-0.2073687
-0.30103	2 0 0	0.117411
-1.700985	2 0 1	-0.2466692
-1.700985	2 0 4	0.4384747
-0.5442115	2 0 </s>
-0.30103	3 0 0	0.1022869
-1.275017	3 0 6	-0.2590169
-0.6353448	3 0 </s>
-1.275017	4 0 0	0.05050808
-1.275017	4 0 9	-0.1161606
-0.2676215	4 0 </s>
-1.672957	5 0 %	-0.1161606
-1.033285	5 0 0	-0.1743414
-1.672957	5 0 5	0.3193534
-1.672957	5 0 6	-0.2590169
-1.672957	5 0 7	0.3400839
-0.2218488	5 0 </s>
-1.195835	6 0 0	0.05050808
-0.1884403	6 0 </s>
-0.9739866	7 0 0	0.05050808
-0.3343148	7 0 </s>
-0.1249387	8 0 </s>
-0.7978953	9 0 0	0.05050808
-0.7978953	9 0 </s>
-0.4968653	F 0 4	0.4384747
-0.4968653	Q 0 2	0.2325192
-0.4968653	U 0 6	0.05451766
-0.4968653	W 0 7	-0.2590169
-0.4968653	X 0 7	0.3400839
-0.3925602	- 1 2	-0.04169822
-1.399955	- 1 5	-0.2650616
-0.7602835	- 1 6	0.2136253
-1.399955	- 1 7	0.7827128
-1.098925	0 1 0	-0.2624813
-1.098925	0 1 7	0.7827128
-0.4592535	0 1 </s>
-1.341963	1 1 0	-0.186623
-1.341963	1 1 2	0.2815649
-1.341963	1 1 3	-0.2650616
-0.3679768	1 1 </s>
-1.341963	1 1 H	-0.1161606
-0.7978953	2 1 5	-0.05723394
-0.7978953	2 1 </s>
-0.9739866	3 1 0	-0.03966855
-0.9739866	3 1 8	-0.012591
-0.9739866	3 1 </s>
-0.7978953	4 1 5	-0.07858661
-0.7978953	4 1 </s>
-0.9739866	5 1 3	-0.05723394
-0.9739866	5 1 5	-0.05723394
-0.9739866	5 1 6	0.4384747
-0.4968653	6 1 </s>
-0.9739866	7 1 2	-0.2240674
-0.9739866	7 1 3	-0.05723394
-0.9739866	7 1 </s>
-0.4968653	8 1 </s>
-0.4968653	9 1 </s>
-0.4968653	B 1 1	-0.03966855
-0.4968653	C 1 2	0.2815649
-0.4968653	E 1 </s>
-0.4968653	H 1 4	0.1707226
-0.7978953	L 1 1	-0.2624813
-0.7978953	L 1 7	0.7827128
-0.4968653	M 1 1	-0.03966855
-0.7978953	N 1 2	0.2815649
-0.7978953	N 1 3	-0.2650616
-0.4968653	O 1 9	-0.2541199
-0.4968653	P 1 9	-0.141324
-0.4968653	R 1 4	0.1707226
-0.7978953	S 1 3	-0.05723394
-0.7978953	S 1 5	-0.07858661
-0.4968653	U 1 4	0.1707226
-0.4968653	Y 1 7	0.7827128
-0.4968653	Z 1 2	-0.2699454
-0.9739866	- 2 5	-0.2650616
-0.9739866	- 2 7	0.01832339
-0.9739866	- 2 </s>
-0.1582235	0 2 </s>
-0.8985862	1 2 0	0.386109
-1.538258	1 2 3	-0.012591
-0.1383027	1 2 </s>
-1.341963	2 2 0	-0.2739737
-0.7022916	2 2 5	0.3193534
-1.341963	2 2 6	-0.2541199
-0.3679768	2 2 </s>
-0.4592535	3 2 -	0.007669747
-1.098925	3 2 0	-0.1366359
-1.098925	3 2 </s>
-1.195835	4 2 6	0.1152334
-1.195835	4 2 8	0.3193534
-0.2218488	4 2 </s>
-0.7978953	5 2 1	-0.2073687
-0.7978953	5 2 9	0.3193534
-1.195835	6 2 5	-0.07858661
-1.195835	6 2 6	0.1152334
-1.195835	6 2 7	-0.1683191
-1.195835	6 2 8	0.3193534
-1.195835	6 2 </s>
-0.9739866	7 2 0	-0.1366359
-0.3343148	7 2 </s>
-1.098925	8 2 5	-0.07858661
-1.098925	8 2 7	0.01832339
-0.4592535	8 2 </s>
-0.1582235	9 2 </s>
-0.7978953	C 2 2	-0.03966855
-0.7978953	C 2 </s>
-0.4968653	G 2 2	-0.03966855
-0.4968653	I 2 0	-0.1366359
-0.4968653	Y 2 9	0.3193534
-0.4968653	Z 2 2	-0.186623
-0.4968653	m 2 </s>
-1.275017	- 3 0	-0.1683191
-1.275017	- 3 3	-0.2541199
-0.6353448	- 3 4	-0.1946698
-1.275017	- 3 6	0.2325192
-1.275017	- 3 7	0.1707226
-1.098925	0 3 -	-0.2466692
-1.098925	0 3 4	-0.2670579
-0.4592535	0 3 </s>
-1.399955	1 3 -	-0.09739803
-1.399955	1 3 4	0.03017968
-1.399955	1 3 5	-0.1683191
-1.399955	1 3 8	0.2325192
-0.3925602	1 3 </s>
-0.9739866	2 3 4	0.03017968
-0.3343148	2 3 </s>
-1.195835	3 3 -	-0.2466692
-1.195835	3 3 0	0.01832339
-0.5561635	3 3 </s>
-1.195835	3 3 X	-0.1161606
-1.195835	4 3 -	-0.09739803
-1.195835	4 3 2	-0.09739803
-0.2218488	4 3 </s>
-0.1249387	5 3 </s>
-0.4968653	6 3 0	0.01832339
-1.098925	7 3 2	-0.2466692
-0.1249387	7 3 </s>
-0.4968653	8 3 7	-0.2541199
-0.1582235	9 3 </s>
-0.4968653	F 3 </s>
-0.4968653	P 3 </s>
-0.4968653	R 3 3	-0.141324
-0.4968653	U 3 2	-0.2466692
-0.4968653	W 3 7	0.1707226
-0.4968653	Z 3 4	0.03017968
-0.4968653	h 3 7	0.1707226
-0.09153026	0 4 </s>
-1.195835	1 4 3	-0.2541199
-0.1884403	1 4 </s>
-0.7978953	2 4 -	-0.2339601
-0.7978953	2 4 </s>
-1.451108	3 4 -	-0.2339601
-1.451108	3 4 2	0.1152334
-1.451108	3 4 5	-0.2670579
-0.2894888	3 4 </s>
-1.098925	4 4 -	-0.2339601
-0.1249387	4 4 </s>
-0.9739866	5 4 8	-0.2073687
-0.9739866	5 4 9	-0.2339601
-0.9739866	5 4 </s>
-0.4968653	6 4 </s>
-0.7978953	7 4 0	0.05451766
-0.7978953	7 4 1	-0.2073687
-0.7978953	8 4 2	-0.2541199
-0.7978953	8 4 8	-0.2073687
-0.7978953	9 4 4	0.3193534
-0.7978953	9 4 </s>
-0.4968653	F 4 </s>
-1.451108	H 4 0	0.05451766
-0.8114361	H 4 3	0.1905713
-1.451108	H 4 4	-0.2466692
-0.294334	H 4 5	-0.1790146
-0.4968653	J 4 7	-0.2073687
-0.7978953	M 4 3	0.1152334
-0.7978953	M 4 4	0.3193534
-0.4968653	T 4 0	0.05451766
-0.4968653	Y 4 2	0.1152334
-0.4968653	Z 4 4	0.3193534
-0.1249387	0 5 </s>
-1.399955	1 5 -	-0.05723394
-0.3925602	1 5 0	0.1626771
-0.4259687	1 5 </s>
-1.399955	2 5 -	-0.2650616
-0.4259687	2 5 0	-0.4512856
-1.399955	2 5 1	-0.2339601
-0.4259687	2 5 </s>
-1.275017	3 5 -	-0.2650616
-1.275017	3 5 0	0.1152334
-1.275017	3 5 7	-0.2541199
-1.275017	3 5 8	-0.2466692
-0.6353448	3 5 </s>
-0.294334	4 5 -	-0.2444903
-1.451108	4 5 1	-0.2339601
-1.451108	4 5 2	-0.2073687
-1.451108	4 5 4	-0.2339601
-1.451108	4 5 </s>
-0.7978953	5 5 1	-0.2339601
-0.7978953	5 5 </s>
-0.4968653	6 5 </s>
-1.098925	7 5 0	0.1152334
-1.098925	7 5 7	-0.2541199
-0.4592535	7 5 </s>
-1.195835	8 5 0	0.1152334
-1.195835	8 5 5	-0.2073687
-0.2218488	8 5 </s>
-0.4968653	H 5 8	0.3193534
-0.4968653	J 5 3	0.3193534
-0.4968653	L 5 8	0.3193534
-0.4968653	N 5 3	0.3193534
-1.275017	0 6 2	-0.2541199
-1.275017	0 6 7	0.3400839
-0.2676215	0 6 </s>
-0.09153026	1 6 </s>
-1.195835	2 6 -	-0.2073687
-1.195835	2 6 2	-0.2541199
-0.2218488	2 6 </s>
-0.1582235	3 6 </s>
-0.4968653	4 6 </s>
-0.4592535	5 6 2	-0.2235181
-1.098925	5 6 7	0.3400839
-1.098925	5 6 </s>
-0.9739866	6 6 6	-0.012591
-0.3343148	6 6 </s>
-0.9739866	7 6 -	-0.2073687
-0.9739866	7 6 0	0.1707226
-0.9739866	7 6 </s>
-0.4968653	8 6 0	0.1707226
-0.1582235	9 6 </s>
-0.4968653	L 6 7	0.3400839
-0.4968653	M 6 4	-0.1161606
-0.4968653	N 6 7	0.3400839
-0.4968653	U 6 9	-0.1161606
-0.4968653	W 6 0	0.1707226
-0.4968653	- 7 6	-0.2339601
-1.275017	0 7 3	0.3193534
-0.1182428	0 7 </s>
-0.03906153	1 7 </s>
-0.30103	2 7 -	-0.1641547
-1.275017	2 7 6	-0.2339601
-0.6353448	2 7 </s>
-1.195835	3 7 0	-0.012591
-0.1884403	3 7 </s>
-0.7978953	4 7 5	-0.09739803
-0.7978953	4 7 </s>
-1.195835	5 7 0	-0.012591
-1.195835	5 7 3	-0.2466692
-1.195835	5 7 4	-0.2073687
-1.195835	5 7 5	-0.2466692
-1.195835	5 7 </s>
-1.275017	6 7 1	-0.2339601
-0.1182428	6 7 </s>
-0.7978953	8 7 -	-0.2466692
-0.7978953	8 7 </s>
-0.4968653	9 7 </s>
-0.4968653	G 7 2	-0.012591
-0.4968653	L 7 9	-0.1161606
-0.4968653	S 7 3	0.3193534
-0.3343148	- 8 7	-0.1161606
-0.9739866	- 8 8	-0.2339601
-1.195835	0 8 -	-0.2073687
-1.195835	0 8 2	-0.2466692
-0.2218488	0 8 </s>
-0.9739866	1 8 5	-0.2541199
-0.3343148	1 8 </s>
-0.1249387	2 8 </s>
-0.1582235	3 8 </s>
-0.7978953	4 8 0	0.3193534
-0.7978953	4 8 6	-0.1161606
-1.098925	5 8 2	-0.09739803
-0.1249387	5 8 </s>
-0.9739866	6 8 3	-0.1161606
-0.9739866	6 8 4	-0.2073687
-0.9739866	6 8 </s>
-0.9739866	8 8 -	-0.2073687
-0.3343148	8 8 </s>
-0.4968653	9 8 5	0.1152334
-0.4968653	D 8 5	0.1152334
-0.4968653	G 8 8	-0.012591
-0.4968653	M 8 2	-0.09739803
-0.4968653	S 8 0	0.3193534
-0.4968653	0 9 </s>
-1.195835	1 9 4	-0.2073687
-1.195835	1 9 8	-0.1161606
-1.195835	1 9 9	-0.2466692
-0.5561635	1 9 </s>
-0.1249387	2 9 </s>
-0.4968653	3 9 2	0.2325192
-0.9739866	4 9 0	-0.2073687
-0.9739866	4 9 4	-0.2073687
-0.9739866	4 9 </s>
-0.4968653	5 9 </s>
-0.4968653	6 9 </s>
-0.4968653	7 9 </s>
-1.098925	9 9 7	-0.1161606
-0.1249387	9 9 </s>
-0.4968653	B 9 9	0.3193534
-0.4968653	E 9 6	0.2325192
-0.4968653	H 9 3	0.2325192
-0.7978953	T 9 9	0.3193534
-0.7978953	T 9 </s>
-0.4968653	Y 9 2	0.2325192
-0.4968653	° 9 0	-0.2073687
-1.496865	' A N	-0.2686484
-1.496865	' A V	-0.2466692
-0.8571935	' A i	-0.012591
-0.8571935	' A l	-0.264518
-0.8571935	' A s	0.4858994
-1.496865	' A t	-0.1161606
-1.496865	' A u	-0.2699454
-1.098925	A A B	-0.2073687
-1.098925	A A F	-0.1161606
-0.4592535	A A W	0.007669747
-1.399955	B A A	-0.2466692
-1.399955	B A C	-0.2541199
-1.399955	B A N	-0.1278046
-1.399955	B A R	-0.229268
-1.399955	B A S	-0.2541199
-1.399955	B A T	-0.2339601
-0.7602835	B A U	-0.2339601
-0.4968653	C A M	-0.2541199
-0.7978953	D A </s>
-0.7978953	D A N	-0.1278046
-0.1582235	E A U	-0.3931685
-0.4968653	F A B	-0.2073687
-0.4968653	G A S	-0.2541199
-0.9739866	H A M	-0.2541199
-0.3343148	H A R	-0.2590169
-1.195835	I A </s>
-1.195835	I A G	-0.2541199
-1.195835	I A N	-0.2686484
-1.195835	I A O	-0.2073687
-1.195835	I A T	-0.012591
-0.4968653	J A N	-0.2686484
-1.098925	L A </s>
-1.098925	L A G	-0.2541199
-0.4592535	L A S	-0.3661734
-1.341963	M A A	-0.09739803
-1.341963	M A G	-0.141324
-1.341963	M A I	-0.2339601
-1.341963	M A M	-0.2541199
-1.341963	M A N	-0.2686484
-0.7022916	M A R	-0.2160314
-1.098925	N A </s>
-1.098925	N A G	-0.141324
-1.098925	N A I	-0.2339601
-1.098925	N A U	-0.2590169
-0.9739866	P A N	-0.2177434
-0.3343148	P A R	-0.2160314
-0.6353448	R A </s>
-1.275017	R A C	-0.141324
-1.275017	R A N	-0.2177434
-1.275017	R A O	-0.2073687
-1.275017	R A V	-0.09739803
-1.538258	S A A	-0.2466692
-0.8985862	S A C	-0.101216
-1.538258	S A H	-0.2073687
-0.8985862	S A L	-0.04088929
-1.538258	S A M	-0.2541199
-1.538258	S A N	-0.1278046
-0.8985862	S A R	-0.2160314
-1.538258	S A V	-0.2466692
-0.9739866	T A L	-0.09739803
-0.9739866	T A P	-0.1161606
-0.9739866	T A T	-0.012591
-0.4968653	V A N	-0.2686484
-0.4968653	Y A A	-0.09739803
-0.4968653	- B I	-0.2073687
-0.7978953	A B </s>
-0.7978953	A B R	0.01832339
-0.4968653	D B 1	-0.1161606
-0.4968653	E B 9	-0.1161606
-0.4968653	H B A	-0.2650616
-0.4968653	I B </s>
-0.7978953	M B </s>
-0.7978953	M B N	-0.1161606
-0.4968653	O B O	-0.2541199
-0.7978953	R B A	-0.1998619
-0.7978953	R B R	0.01832339
-0.4968653	T B R	-0.2590169
-0.4968653	U B I	-0.2073687
-0.4968653	V B R	-0.2590169
-0.4968653	i B </s>
-0.4968653	- C D	-0.2541199
-0.4968653	8 C V	0.2325192
-0.5561635	A C </s>
-1.195835	A C C	-0.2073687
-1.195835	A C E	-0.2541199
-1.195835	A C H	-0.2456791
-0.7978953	C C H	-0.2744923
-0.7978953	C C I	-0.2466692
-0.9739866	E C L	-0.2073687
-0.9739866	E C O	-0.2541199
-0.9739866	E C R	-0.1161606
-0.4968653	I C </s>
-0.4968653	K C L	-0.2073687
-0.4968653	N C E	-0.2541199
-0.4968653	O C C	-0.2073687
-0.9739866	P C E	-0.2541199
-0.9739866	P C F	0.2325192
-0.9739866	P C M	-0.1161606
-0.4592535	R C </s>
-1.098925	R C I	-0.09739803
-1.098925	R C J	-0.2073687
-1.195835	S C E	-0.2541199
-0.2218488	S C H	-0.3730589
-1.195835	S C I	-0.09739803
-0.4968653	U C H	-0.1983857
-0.4968653	W C 2	-0.2073687
-0.4968653	Z C S	-0.1161606
-1.195835	C D -	-0.1161606
-1.195835	C D </s>
-1.195835	C D I	-0.1161606
-1.195835	C D V	-0.2073687
-1.195835	C D s	-0.1161606
-0.4968653	D D 8	-0.1161606
-0.9739866	E D </s>
-0.9739866	E D F	0.4384747
-0.9739866	E D U	-0.2339601
-0.7978953	G D F	0.4384747
-0.7978953	G D Y	-0.1161606
-0.4968653	I D E	-0.2624813
-0.9739866	N D </s>
-0.9739866	N D A	-0.2073687
-0.9739866	N D O	-0.2339601
-0.4968653	O D E	-0.2624813
-0.4968653	P D S	-0.1161606
-0.4968653	Q D D	-0.1161606
-0.7602835	R D </s>
-1.399955	R D B	-0.1161606
-1.399955	R D E	-0.2624813
-1.399955	R D F	0.4384747
-1.399955	R D G	-0.1161606
-0.7602835	R D O	-0.1790422
-0.4968653	T D F	0.4384747
-0.4968653	U D </s>
-0.4968653	V D </s>
-0.7978953	' E m	-0.1161606
-0.7978953	' E p	-0.012591
-0.4968653	B E N	-0.2733852
-1.195835	C E 1	-0.1161606
-1.195835	C E </s>
-1.195835	C E M	-0.2339601
-1.195835	C E N	-0.2404947
-1.195835	C E S	-0.2650616
-1.341963	D E </s>
-1.341963	D E A	0.2325192
-1.341963	D E M	-0.2339601
-1.341963	D E N	-0.2733852
-1.341963	D E R	-0.2710233
-1.341963	D E S	0.09161943
-1.341963	D E V	-0.1161606
-0.9739866	E E </s>
-0.9739866	E E R	-0.07451892
-0.9739866	E E S	0.09161943
-0.9739866	F E K	-0.1161606
-0.9739866	F E T	-0.07858661
-0.9739866	F E W	-0.1161606
-1.195835	G E </s>
-0.5561635	G E N	-0.2302105
-1.195835	G E O	-0.1161606
-1.195835	G E R	-0.07451892
-0.1249387	H E I	-0.4512856
-1.098925	H E P	-0.2073687
-0.7022916	I E </s>
-1.341963	I E D	-0.2339601
-1.341963	I E L	-0.1683191
-1.341963	I E N	-0.2733852
-1.341963	I E R	-0.229268
-1.341963	I E U	-0.2541199
-0.4968653	J E </s>
-0.7781513	L E </s>
-1.752138	L E C	-0.2339601
-1.752138	L E F	-0.2073687
-1.112466	L E N	-0.2302105
-1.752138	L E P	-0.2073687
-1.112466	L E R	0.01538393
-0.7447428	L E S	-0.2088123
-1.112466	L E T	-0.04999991
-1.752138	L E U	-0.2541199
-1.752138	L E Z	-0.1161606
-1.098925	M E </s>
-1.098925	M E N	-0.2404947
-1.098925	M E R	-0.229268
-1.098925	M E S	0.09161943
-0.5561635	N E </s>
-1.195835	N E E	-0.2339601
-1.195835	N E R	-0.229268
-1.195835	N E T	-0.07858661
-1.098925	P E 9	-0.1161606
-0.4592535	P E </s>
-1.098925	P E L	-0.1683191
-1.700985	R E -	-0.1161606
-0.3590219	R E </s>
-1.700985	R E A	0.2325192
-1.700985	R E E	-0.2339601
-1.700985	R E I	-0.2541199
-1.700985	R E L	-0.1683191
-1.061314	R E N	-0.2302105
-1.700985	R E T	-0.2650616
-1.700985	R E U	-0.2541199
-0.2218488	S E </s>
-1.195835	S E I	-0.2541199
-1.195835	S E M	-0.2339601
-0.5561635	T E </s>
-1.195835	T E E	-0.2339601
-0.5561635	T E L	-0.012591
-0.7978953	U E </s>
-0.7978953	U E R	-0.07451892
-1.195835	V E L	-0.1683191
-1.195835	V E N	-0.2404947
-0.5561635	V E R	-0.0554904
-1.195835	V E U	-0.2541199
-0.9739866	W E D	-0.2339601
-0.9739866	W E N	-0.2404947
-0.9739866	W E R	-0.2710233
-0.4968653	X E U	-0.2541199
-0.4968653	Y E B	-0.1161606
-0.4968653	Z E Y	-0.1161606
-0.4968653	A F </s>
-0.1582235	C F </s>
-0.09153026	D F </s>
-0.7978953	E F F	-0.2073687
-0.7978953	E F I	-0.2339601
-0.7978953	F F </s>
-0.7978953	F F E	-0.2339601
-0.1582235	I F </s>
-0.4968653	J F Z	-0.1161606
-0.4968653	K F G	-0.1161606
-0.7978953	R F </s>
-0.7978953	R F F	-0.2073687
-0.4968653	U F 0	-0.1161606
-0.9739866	V F </s>
-0.9739866	V F E	-0.2339601
-0.9739866	V F I	-0.2339601
-0.4968653	X F P	-0.2339601
-0.4968653	Y F M	-0.1161606
-0.7978953	Z F U	-0.1161606
-0.7978953	Z F X	-0.1161606
-0.4968653	a F R	-0.2339601
-1.195835	A G 7	-0.1161606
-0.5561635	A G E	-0.2235181
-1.195835	A G R	-0.2073687
-1.195835	A G U	-0.2073687
-0.4968653	D G U	-0.2073687
-0.4968653	F G W	-0.1161606
-0.4968653	H G Z	-0.2073687
-0.7978953	I G D	-0.2073687
-0.7978953	I G E	-0.2541199
-0.7978953	L G </s>
-0.7978953	L G O	-0.2073687
-0.4592535	N G </s>
-1.098925	N G E	-0.141324
-1.098925	N G O	-0.2073687
-0.4968653	O G 2	-0.1161606
-0.4968653	Q G J	-0.1161606
-0.4968653	R G </s>
-0.4968653	S G Z	-0.2073687
-0.7978953	T G 8	-0.1161606
-0.7978953	T G I	-0.1161606
-0.4968653	U G S	-0.1161606
-0.4968653	1 H 4	-0.2670579
-0.7978953	A H 1	-0.1161606
-0.7978953	A H U	-0.2073687
-0.3853509	C H 4	-0.1604111
-1.087642	C H </s>
-0.7533277	C H A	-0.05323038
-1.727314	C H B	-0.1161606
-1.727314	C H I	0.2325192
-1.727314	C H U	-0.2073687
-1.087642	C H W	0.007669747
-0.7978953	K H 5	-0.1161606
-0.7978953	K H R	-0.2073687
-0.4968653	L H I	0.2325192
-0.4968653	M H R	-0.2073687
-0.1582235	N H E	0.094504
-0.4968653	O H L	-0.2073687
-0.4968653	P H O	-0.1161606
-0.4968653	R H Z	-0.2073687
-0.4968653	T H E	0.3193534
-0.7978953	Y H 4	-0.2098868
-0.7978953	Y H 9	-0.1161606
-0.4968653	Z H Z	-0.2073687
-0.9739866	A I </s>
-0.9739866	A I F	0.2325192
-0.9739866	A I N	-0.186623
-0.7978953	B I L	0.6203834
-0.7978953	B I R	0.2325192
-0.4592535	C I </s>
-1.098925	C I A	-0.2541199
-1.098925	C I D	-0.1161606
-0.4968653	D I </s>
-1.195835	E I 2	-0.1161606
-0.2218488	E I M	-0.2471656
-1.195835	E I N	-0.186623
-0.9739866	F I A	-0.2541199
-0.9739866	F I L	0.6203834
-0.9739866	F I P	-0.2073687
-0.4968653	G I </s>
-0.1582235	H I </s>
-0.4968653	I I Y	-0.1161606
-1.098925	L I L	-0.2650616
-1.098925	L I M	-0.2466692
-1.098925	L I O	-0.1161606
-1.098925	L I V	-0.2073687
-0.9739866	M I </s>
-0.9739866	M I N	-0.186623
-0.9739866	M I T	-0.09739803
-1.399955	N I A	-0.2541199
-1.399955	N I C	-0.1161606
-0.4259687	N I E	-0.134282
-1.399955	N I F	0.2325192
-1.399955	N I R	0.2325192
-1.399955	N I S	-0.2073687
-1.098925	O I E	-0.186623
-1.098925	O I N	-0.186623
-0.4592535	O I T	-0.3222474
-0.4968653	P I G	-0.2073687
-1.275017	R I </s>
-0.6353448	R I A	-0.2235181
-1.275017	R I B	-0.1161606
-1.275017	R I G	-0.2073687
-1.275017	R I S	-0.2073687
-0.7978953	S I E	-0.2624813
-0.7978953	S I N	-0.2624813
-0.4968653	T I L	0.6203834
-0.9739866	U I L	0.6203834
-0.9739866	U I T	-0.09739803
-0.9739866	U I V	-0.2073687
-1.195835	V I </s>
-0.5561635	V I E	-0.2412679
-1.195835	V I L	0.6203834
-1.195835	V I N	-0.186623
-0.9739866	W I L	0.6203834
-0.9739866	W I N	-0.186623
-0.9739866	W I X	-0.1161606
-0.4968653	- J o	-0.2541199
-0.7978953	C J F	-0.1161606
-0.7978953	C J L	-0.1161606
-0.4968653	G J W	-0.1161606
-0.4968653	L J 4	-0.1161606
-0.4968653	N J O	0.2325192
-0.4968653	P J 5	-0.1161606
-0.4968653	A K N	-0.2073687
-0.4968653	E K L	-0.1161606
-0.4968653	L K H	-0.2073687
-0.4968653	M K H	-0.2073687
-0.4968653	P K M	-0.1161606
-0.4968653	Q K C	-0.1161606
-0.4968653	R K N	-0.2073687
-0.4968653	S K U	-0.1161606
-0.4968653	Y K Y	-0.1161606
-0.4968653	Z K </s>
-0.4592535	A L E	-0.4213732
-1.098925	A L H	-0.1161606
-1.098925	A L L	0.1566261
-0.7978953	C L E	-0.2478212
-0.7978953	C L J	-0.1161606
-0.6353448	E L </s>
-0.6353448	E L E	-0.194204
-0.6353448	E L L	-0.06822333
-0.7978953	H L M	-0.2073687
-0.7978953	H L U	-0.2073687
-1.399955	I L A	-0.09739803
-0.05799195	I L L	0.2210004
-0.4968653	J L O	-0.1161606
-0.4968653	K L U	-0.2073687
-1.538258	L L A	-0.09739803
-0.1962947	L L E	0.06807268
-1.538258	L L G	-0.2073687
-0.8985862	L L I	-0.2073687
-0.4968653	M L M	-0.2073687
-0.4968653	N L 5	-0.1161606
-0.9739866	O L 6	-0.1161606
-0.9739866	O L I	-0.2466692
-0.9739866	O L L	0.1566261
-0.4968653	R L E	-0.1965238
-0.4968653	T L E	-0.2478212
-1.098925	U L </s>
-1.098925	U L E	-0.2478212
-1.098925	U L T	-0.1161606
-1.098925	U L X	-0.1161606
-0.7978953	W L 7	-0.1161606
-0.7978953	W L </s>
-0.7978953	Y L 1	-0.2073687
-0.7978953	Y L </s>
-0.4968653	- M a	-0.2763728
-1.195835	A M 1	-0.1161606
-1.195835	A M A	-0.186623
-1.195835	A M P	-0.2466692
-1.195835	A M S	-0.2073687
-1.195835	A M X	-0.1161606
-0.4968653	B M P	-0.2466692
-0.4968653	C M O	-0.2590169
-0.9739866	E M </s>
-0.9739866	E M A	-0.2624813
-0.9739866	E M E	-0.2466692
-0.4968653	F M L	-0.1161606
-0.1249387	I M </s>
-1.098925	I M I	-0.2339601
-0.4968653	K M 8	-0.1161606
-0.7978953	L M 6	-0.1161606
-0.7978953	L M </s>
-0.4968653	M M A	-0.2624813
-0.4968653	N M K	-0.1161606
-0.4968653	O M M	-0.1161606
-0.7978953	P M U	-0.1161606
-0.7978953	P M Y	-0.1161606
-0.7978953	R M I	-0.2339601
-0.7978953	R M P	-0.2466692
-0.7978953	S M 4	-0.2073687
-0.7978953	S M I	-0.2339601
-0.4968653	T M 4	-0.2073687
-0.4968653	U M B	-0.2073687
-0.4968653	X M W	-0.1161606
-0.7978953	Y M A	-0.2624813
-0.7978953	Y M E	-0.2466692
-1.496865	A N C	-0.1161606
-0.8571935	A N D	-0.1790422
-1.496865	A N I	-0.2650616
-1.496865	A N O	-0.2541199
-1.496865	A N P	-0.2073687
-0.5228788	A N S	-0.01939812
-1.496865	A N T	-0.2339601
-0.4968653	B N L	-0.1161606
-1.033285	E N </s>
-1.033285	E N A	-0.2073687
-1.672957	E N D	-0.2339601
-1.672957	E N E	-0.2541199
-1.033285	E N H	0.007669747
-1.033285	E N I	-0.2466692
-1.672957	E N J	-0.1161606
-1.672957	E N O	-0.2541199
-1.672957	E N R	-0.2339601
-1.672957	E N S	-0.07858661
-1.672957	E N T	-0.2339601
-0.7022916	I N E	-0.3661734
-0.7022916	I N G	-0.04088929
-1.341963	I N I	-0.2650616
-0.7022916	I N S	-0.04999991
-0.4968653	J N M	-0.1161606
-0.7978953	K N </s>
-0.7978953	K N N	-0.2466692
-1.098925	N N 1	-0.2073687
-1.098925	N N </s>
-1.098925	N N E	-0.2541199
-1.098925	N N O	-0.2541199
-0.6034136	O N </s>
-1.610809	O N E	-0.2541199
-1.610809	O N I	-0.07858661
-0.6368221	O N N	-0.1641547
-0.9711369	O N S	-0.2466692
-1.610809	O N T	-0.2339601
-1.610809	O N Y	-0.1161606
-0.9739866	R N 5	-0.1161606
-0.9739866	R N 6	-0.1161606
-0.9739866	R N I	-0.07858661
-1.195835	U N </s>
-1.195835	U N A	-0.2466692
-0.5561635	U N G	-0.04088929
-1.195835	U N R	-0.2339601
-0.4968653	Y N I	-0.2650616
-0.4968653	Z N U	-0.1161606
-1.098925	' O c	0.3193534
-1.098925	' O h	-0.1161606
-1.098925	' O r	-0.2541199
-1.098925	' O u	-0.012591
-0.7978953	A O </s>
-0.7978953	A O N	-0.1582181
-1.195835	B O B	-0.1161606
-0.5561635	B O N	-0.1547051
-1.195835	B O R	-0.1683191
-1.195835	B O U	-0.2624813
-1.195835	C O D	-0.1161606
-1.195835	C O N	-0.2336204
-1.195835	C O O	-0.2541199
-1.195835	C O T	-0.012591
-1.195835	C O U	-0.2624813
-0.9739866	D O M	-0.1161606
-0.9739866	D O N	-0.1687632
-0.9739866	D O R	-0.2590169
-0.4968653	E O T	-0.012591
-0.7978953	G O </s>
-0.7978953	G O T	-0.2339601
-0.4968653	H O N	-0.2719332
-0.4968653	I O N	-0.1582181
-0.1582235	J O I	-0.2073687
-0.4968653	L O L	-0.2339601
-0.30103	M O N	-0.07468115
-0.6353448	M O R	-0.2339601
-1.275017	M O Z	-0.2073687
-1.195835	N O 1	-0.1161606
-1.195835	N O </s>
-1.195835	N O I	-0.09739803
-1.195835	N O R	-0.2590169
-1.195835	N O U	-0.2624813
-1.195835	O O </s>
-0.5561635	O O O	-0.101216
-1.195835	O O R	-0.1683191
-1.195835	O O X	-0.2073687
-0.7978953	P O L	-0.2339601
-0.7978953	P O S	-0.1161606
-0.9739866	R O C	-0.1161606
-0.9739866	R O G	-0.1161606
-0.9739866	R O N	-0.1687632
-0.4968653	S O U	-0.186623
-1.195835	T O </s>
-1.195835	T O I	-0.09739803
-1.195835	T O N	-0.1582181
-1.195835	T O P	-0.1161606
-1.195835	T O U	-0.2624813
-0.1582235	V O U	-0.1612405
-0.4968653	' P e	-0.2624813
-0.4968653	- P i	0.2325192
-0.4968653	A P E	-0.09739803
-0.4968653	C P </s>
-0.4968653	D P C	-0.2339601
-0.7978953	E P C	-0.2339601
-0.7978953	E P H	-0.1161606
-0.9739866	F P </s>
-0.9739866	F P P	-0.1161606
-0.9739866	F P Z	-0.2073687
-0.7978953	I P J	-0.1161606
-0.7978953	I P S	-0.2073687
-1.098925	M P 3	-0.1161606
-1.098925	M P </s>
-1.098925	M P S	-0.2073687
-1.098925	M P Z	-0.2073687
-0.7978953	N P E	-0.09739803
-0.7978953	N P M	-0.2073687
-0.4968653	O P </s>
-0.4968653	P P 1	-0.1161606
-0.4968653	S P A	-0.012591
-0.4968653	V P D	-0.1161606
-0.4968653	W P E	-0.2466692
-0.4968653	X P </s>
-0.7978953	Z P K	-0.1161606
-0.7978953	Z P R	-0.2339601
-0.4968653	Q Q 0	-0.1161606
-0.4968653	T Q W	-0.1161606
-0.4968653	U Q Y	-0.2073687
-0.9739866	V Q D	-0.1161606
-0.9739866	V Q Y	-0.2073687
-0.9739866	V Q Z	-0.1161606
-0.4968653	X Q Q	-0.1161606
-0.7978953	- R </s>
-0.7978953	- R h	-0.1161606
-0.9363748	A R </s>
-0.9363748	A R A	-0.3931685
-0.9363748	A R B	-0.1161606
-1.576047	A R D	-0.1998619
-1.576047	A R E	-0.2739737
-1.576047	A R I	-0.2590169
-1.576047	A R L	-0.1161606
-1.576047	A R R	-0.1161606
-1.576047	A R T	-0.2073687
-1.275017	B R 1	-0.1161606
-0.30103	B R E	-0.1535132
-1.275017	B R O	-0.2339601
-1.275017	B R U	-0.2073687
-0.4968653	C R I	-0.2590169
-0.4192728	E R </s>
-0.9363748	E R C	-0.04088929
-1.576047	E R D	-0.1998619
-0.9363748	E R E	-0.01718044
-1.576047	E R N	-0.2339601
-1.576047	E R S	-0.2073687
-0.9739866	F R </s>
-0.9739866	F R F	-0.2073687
-0.9739866	F R I	-0.1683191
-0.7978953	G R E	-0.2739737
-0.7978953	G R K	-0.1161606
-0.7978953	H R D	-0.2650616
-0.7978953	H R N	-0.2339601
-0.1582235	I R </s>
-0.4968653	L R A	-0.2590169
-0.9739866	N R C	-0.09739803
-0.9739866	N R D	-0.2650616
-0.9739866	N R T	-0.2073687
-1.275017	O R A	-0.2590169
-0.6353448	O R D	-0.1784155
-1.275017	O R E	-0.2739737
-1.275017	O R F	-0.2073687
-1.275017	O R I	-0.1683191
-0.9739866	P R 3	-0.1161606
-0.3343148	P R E	-0.01718044
-0.4968653	R R E	-0.2739737
-0.7978953	S R H	-0.1161606
-0.7978953	S R O	-0.2339601
-0.9739866	T R A	-0.2590169
-0.3343148	T R E	-0.2576785
-0.7978953	U R </s>
-0.7978953	U R G	-0.1161606
-0.4968653	V R E	-0.03282911
-0.4968653	X R S	-0.2073687
-0.5561635	A S </s>
-1.195835	A S C	0.1152334
-1.195835	A S P	-0.1161606
-1.195835	A S S	0.2325192
-0.4968653	B S R	-0.2073687
-0.4968653	C S A	-0.2699454
-0.4968653	D S M	-0.2073687
-1.399955	E S 7	-0.1161606
-0.2383363	E S </s>
-1.399955	E S S	0.2325192
-0.4968653	G S 8	-0.1161606
-0.7978953	I S </s>
-0.7978953	I S T	-0.2541199
-0.7978953	M S R	-0.2073687
-0.7978953	M S U	-0.2541199
-0.4259687	N S </s>
-1.399955	N S A	-0.2240674
-1.399955	N S I	-0.2073687
-1.399955	N S M	-0.2073687
-1.399955	N S T	-0.141324
-1.399955	N S U	-0.2541199
-0.4968653	O S T	-0.141324
-0.7978953	P S </s>
-0.7978953	P S E	-0.2541199
-0.7978953	R S </s>
-0.7978953	R S E	0.1152334
-0.1582235	S S E	-0.109616
-0.4968653	T S 1	-0.2073687
-0.1582235	U S </s>
-0.4968653	V S 1	-0.2073687
-0.4968653	X S A	-0.2240674
-0.3343148	A T </s>
-0.9739866	A T Q	-0.1161606
-0.4259687	E T </s>
-1.399955	E T A	-0.2339601
-1.399955	E T E	-0.141324
-1.399955	E T O	-0.2541199
-1.399955	E T T	-0.2466692
-1.399955	E T V	-0.2073687
-0.4968653	G T 9	-0.2073687
-0.4592535	I T </s>
-0.4592535	I T E	-0.101216
-0.4968653	L T </s>
-0.9739866	N T </s>
-0.9739866	N T B	-0.1161606
-0.9739866	N T Y	-0.1161606
-0.3343148	O T </s>
-0.9739866	O T T	-0.2466692
-0.7978953	R T E	-0.141324
-0.7978953	R T S	-0.1161606
-1.195835	S T </s>
-0.5561635	S T A	-0.1790422
-1.195835	S T O	-0.2541199
-1.195835	S T R	-0.012591
-1.098925	T T H	-0.1161606
-1.098925	T T L	-0.1161606
-1.098925	T T M	-0.1161606
-1.098925	T T R	-0.012591
-0.7978953	U T O	-0.2541199
-0.7978953	U T T	-0.2466692
-0.4968653	W T </s>
-0.4968653	X T T	-0.2466692
-0.7978953	Z T 9	-0.2073687
-0.7978953	Z T G	-0.2073687
-0.4968653	' U n	0.1152334
-0.4968653	- U n	0.1152334
-1.275017	A U D	-0.1161606
-1.275017	A U E	-0.2073687
-1.275017	A U L	-0.2466692
-1.275017	A U T	-0.2073687
-0.6353448	A U X	0.094504
-0.9739866	D U 3	-0.1161606
-0.9739866	D U </s>
-0.9739866	D U T	-0.2073687
-1.195835	E U I	-0.2339601
-1.195835	E U L	-0.2466692
-1.195835	E U R	-0.2073687
-1.195835	E U X	0.3193534
-1.195835	E U Y	-0.1161606
-0.4968653	F U 0	-0.1161606
-0.7978953	G U 6	-0.1161606
-0.7978953	G U N	-0.2541199
-0.7978953	H U </s>
-0.7978953	H U V	-0.2466692
-0.4968653	K U G	-0.1161606
-0.7978953	L U 1	-0.1161606
-0.7978953	L U N	-0.141324
-0.4968653	M U </s>
-0.4968653	N U F	-0.1161606
-1.341963	O U C	-0.1161606
-1.341963	O U L	-0.2466692
-1.341963	O U Q	-0.1161606
-1.341963	O U R	-0.2073687
-0.7022916	O U S	0.007669747
-1.341963	O U V	-0.2466692
-0.4968653	P U V	-0.2466692
-0.7978953	R U E	-0.2073687
-0.7978953	R U L	-0.2466692
-1.195835	S U </s>
-1.195835	S U B	-0.1161606
-0.5561635	S U I	-0.1790422
-1.195835	S U N	-0.141324
-0.4968653	V U X	-0.2466692
-1.098925	A V A	-0.1161606
-0.4592535	A V E	-0.101216
-1.098925	A V I	-0.2541199
-0.1582235	C V </s>
-0.7978953	D V </s>
-0.7978953	D V D	-0.1161606
-0.4968653	E V I	-0.2541199
-0.7978953	I V E	-0.141324
-0.7978953	I V R	-0.1161606
-0.4968653	M V Q	-0.2339601
-0.7978953	T V </s>
-0.7978953	T V Q	-0.2339601
-1.098925	U V B	-0.1161606
-1.098925	U V E	-0.2541199
-1.098925	U V Q	-0.2339601
-1.098925	U V S	-0.1161606
-0.4968653	V V Z	-0.1161606
-0.4968653	W V F	-0.2339601
-0.1582235	X V </s>
-0.1582235	A W L	-0.1161606
-0.4968653	C W I	-0.2339601
-0.4968653	E W 6	-0.1161606
-0.4968653	G W C	-0.1161606
-0.1582235	H W E	-0.1790422
-0.4968653	J W 0	-0.1161606
-0.7978953	L W E	-0.2339601
-0.7978953	L W W	-0.1161606
-0.4968653	M W T	-0.1161606
-0.4968653	Q W 3	-0.1161606
-0.4968653	R W </s>
-0.4968653	S W </s>
-0.4968653	T W I	-0.2339601
-0.4968653	W W P	-0.1161606
-0.4968653	3 X V	0.2325192
-0.7978953	D X F	-0.1161606
-0.7978953	D X M	-0.1161606
-0.4968653	F X 0	-0.1161606
-0.4968653	I X V	0.2325192
-0.4968653	L X </s>
-0.4968653	M X </s>
-0.7978953	O X P	-0.1161606
-0.7978953	O X Y	-0.2073687
-0.1249387	U X </s>
-1.098925	U X Q	-0.1161606
-0.30103	X X </s>
-1.275017	X X T	-0.1161606
-0.6353448	X X X	-0.206526
-0.4968653	° X X	-0.1683191
-0.4968653	D Y 4	-0.1161606
-0.4968653	E Y Y	-0.1161606
-0.4968653	I Y E	-0.1161606
-0.4968653	K Y H	-0.2073687
-0.4968653	M Y H	-0.2073687
-0.4968653	N Y M	-0.2073687
-0.7978953	Q Y 1	-0.1161606
-0.7978953	Q Y 2	-0.1161606
-0.4968653	T Y L	-0.2073687
-0.4968653	U Y L	-0.2073687
-0.4968653	V Y M	-0.2073687
-0.7978953	X Y K	-0.1161606
-0.7978953	X Y Z	-0.2073687
-0.4968653	Y Y 9	-0.1161606
-0.4968653	C Z N	-0.1161606
-0.4968653	E Z </s>
-0.4968653	F Z 4	-0.1161606
-0.7978953	G Z F	-0.2073687
-0.7978953	G Z T	-0.2073687
-0.7978953	H Z 3	-0.1161606
-0.7978953	H Z Z	-0.1161606
-0.4968653	N Z P	-0.2073687
-0.7978953	O Z </s>
-0.7978953	O Z K	-0.1161606
-0.7978953	P Z F	-0.2073687
-0.7978953	P Z H	-0.1161606
-0.4968653	Q Z 1	-0.1161606
-0.4968653	V Z P	-0.2073687
-0.4968653	W Z </s>
-0.4968653	X Z 2	-0.1161606
-0.7978953	Y Z </s>
-0.7978953	Y Z E	-0.1161606
-0.4968653	Z Z </s>
-1.796966	' a </s>
-1.353253	' a b	-1.110014
-0.8925227	' a c	-0.4777201
-1.307496	' a d	-0.1374756
-1.462398	' a g	-0.03008658
-1.228315	' a i	-0.1380214
-1.830375	' a j	0.2299556
-2.16469	' a l	-0.1787523
-1.642742	' a m	-0.05909964
-1.228315	' a n	0.1856355
-2.804361	' a o	-0.012591
-1.103376	' a p	-0.5833978
-1.228315	' a r	-0.4714597
-1.266103	' a s	-0.6705173
-1.228315	' a t	-1.293917
-0.8761322	' a u	-0.4368825
-0.860338	' a v	0.7755222
-2.804361	' a x	0.1767707
-1.830375	' a y	-0.746823
-2.804361	' a é	-0.1161606
-1.195835	B a g	0.0776374
-1.195835	B a i	-0.2530841
-1.195835	B a n	-0.2728805
-1.195835	B a s	-0.2752852
-1.195835	B a y	-0.180304
-1.195835	C a b	-0.267307
-1.195835	C a i	-0.1464868
-1.195835	C a m	-0.2488874
-1.195835	C a r	-0.2139281
-1.195835	C a v	-0.1278046
-0.3343148	D a n	-0.2546131
-0.9739866	D a v	-0.2184657
-1.195835	F a c	-0.2404502
-1.195835	F a i	-0.1718543
-0.5561635	F a m	-0.04144479
-1.195835	F a u	-0.2693599
-0.4968653	G a u	-0.2732868
-1.098925	H a b	-0.1834553
-1.098925	H a l	-0.2052419
-0.4592535	H a u	-0.2191074
-0.7978953	J a c	-0.2590657
-0.7978953	J a u	-0.2243036
-0.4968653	K a l	-0.2726558
-1.195835	L a </s>
-1.195835	L a b	-0.267307
-1.195835	L a m	-0.2488874
-1.195835	L a r	-0.2820074
-1.195835	L a v	-0.06981269
-1.839288	M a </s>
-1.839288	M a c	-0.2817895
-1.839288	M a d	-0.2055406
-0.6825142	M a i	0.09460887
-0.8653014	M a l	-0.4059207
-1.199616	M a n	-0.4957378
-0.831893	M a r	-0.1294046
-1.839288	M a s	-0.2578025
-1.199616	M a t	-0.5029276
-1.839288	M a x	-0.2624813
-1.839288	M a z	-0.2541199
-0.7978953	N a g	-0.2608133
-0.7978953	N a t	0.108382
-0.8571935	P a i	-0.2317231
-1.496865	P a n	-0.2344591
-1.496865	P a p	-0.2601452
-0.5228788	P a r	-0.1867828
-1.496865	P a t	-0.2670828
-0.8571935	P a u	-0.4981363
-0.9363748	S a c	-0.435789
-1.576047	S a g	-0.2440772
-1.576047	S a i	-0.2321502
-0.60206	S a l	-0.07772578
-1.576047	S a m	-0.2804329
-1.576047	S a n	-0.2668763
-1.576047	S a r	-0.2364614
-1.576047	S a u	-0.2739913
-1.576047	S a v	-0.1278046
-0.7978953	T a b	-0.0384995
-0.7978953	T a x	0.1767707
-0.1884403	V a l	0.1901358
-1.195835	V a r	-0.2364614
-2.109649	b a </s>
-1.469977	b a c	-0.2006397
-2.109649	b a g	-0.2608133
-1.135663	b a i	-0.2120464
-0.7096938	b a l	0.0659036
-0.7676858	b a n	-0.3120897
-1.135663	b a r	-0.3579026
-0.9528754	b a s	-0.1906217
-0.6585413	b a t	0.1806704
-1.469977	b a u	-0.4777982
-1.5272	c a b	0.1977884
-1.5272	c a c	0.01545677
-1.861515	c a d	-0.04299077
-1.493792	c a i	-0.515287
-0.890378	c a l	-0.07936358
-1.5272	c a m	-0.2464934
-1.339568	c a n	-0.1703429
-1.344413	c a p	-0.3658096
-1.339568	c a r	0.06574073
-1.004321	c a s	0.2010852
-0.4245378	c a t	-0.4541112
-1.159223	c a u	-0.693629
-2.501187	c a v	-0.1278046
-1.19704	d a </s>
-2.204436	d a c	-0.09495571
-1.042817	d a i	-0.122182
-1.047662	d a l	-0.2309322
-1.047662	d a m	-0.962151
-0.5034502	d a n	-0.680382
-1.564764	d a p	-0.4849946
-2.204436	d a r	-0.2755414
-0.7533277	d a t	-0.07237041
-2.204436	d a v	-0.06981269
-2.204436	d a y	-0.2190375
-1.959263	e a b	-0.0384995
-0.7976443	e a n	0.01667359
-1.959263	e a t	-0.2574314
-0.1401787	e a u	-0.7446744
-2.309779	f a b	-0.267307
-0.6087934	f a c	-0.8863981
-2.309779	f a g	0.0776374
-0.4327021	f a i	-0.6321691
-1.335792	f a m	-0.7540919
-1.335792	f a n	-0.1316112
-1.302384	f a s	-0.1981982
-2.309779	f a t	0.108382
-1.14816	f a u	-0.2518843
-1.302384	f a v	-0.3762618
-1.670107	f a ç	0.007669747
-0.9150299	g a g	0.08536053
-1.102662	g a l	-0.6930934
-1.436977	g a m	-0.4382295
-1.069254	g a n	-0.5646635
-0.5383909	g a r	-0.5240978
-1.102662	g a s	-0.3666493
-1.069254	g a t	-0.2148811
-1.436977	g a u	-0.1719155
-1.102662	g a z	-0.2375487
-0.8239087	h a b	-1.104869
-2.496865	h a c	-0.2817895
-2.496865	h a e	-0.1161606
-0.6575773	h a i	-0.982714
-2.496865	h a l	-0.1265743
-1.522879	h a m	-0.3188247
-0.6382722	h a n	-0.1662011
-2.496865	h a p	0.1432621
-2.496865	h a q	0.3559398
-0.8860567	h a r	-0.3299198
-2.496865	h a s	0.1259573
-1.154902	h a t	-0.7904699
-1	h a u	-0.5423441
-2.496865	h a î	-0.1683954
-2.237228	i a </s>
-1.597556	i a b	-0.2633489
-2.237228	i a g	0.0776374
-1.229833	i a i	-0.3831012
-0.4616091	i a l	-0.6129712
-2.237228	i a m	-0.2804329
-0.5942346	i a n	-0.7039099
-2.237228	i a s	-0.2381245
-0.7861202	i a t	-0.06909668
-1.263241	i a u	-0.7740524
-0.3679768	j a m	-0.09791583
-1.341963	j a n	-0.282397
-1.341963	j a p	-0.2731749
-1.341963	j a r	-0.2508592
-1.341963	j a u	-0.2817895
-0.4968653	k a r	-0.2139281
-2.583225	l a -	-0.09739803
-1.57583	l a </s>
-1.421606	l a b	-0.1336246
-1.044967	l a c	-0.7728028
-1.609239	l a d	-0.3319926
-2.583225	l a f	-0.2699454
-2.583225	l a g	0.0776374
-0.6239618	l a i	-0.2348333
-1.426451	l a m	-0.3252115
-0.7061486	l a n	-1.26037
-1.943553	l a q	0.1310904
-1.132117	l a r	-0.284286
-1.943553	l a s	0.1928802
-0.9102685	l a t	-0.1683794
-1.943553	l a u	-0.2191074
-1.943553	l a v	-0.3526541
-2.583225	l a x	-0.2624813
-1.943553	l a y	-0.4438869
-2.583225	l a î	0.2613614
-2.583225	l a ï	-0.2073687
-2.754544	m a </s>
-2.754544	m a b	-0.1834553
-2.754544	m a c	-0.2109396
-1.747149	m a d	-0.3148901
-1.02723	m a g	0.3796294
-0.9152559	m a i	-0.5516984
-2.114872	m a j	0.5716252
-0.9152559	m a l	0.1557448
-2.754544	m a m	-0.2488874
-0.6044661	m a n	-0.03908408
-0.7952806	m a r	-0.3528085
-2.754544	m a s	-0.2381245
-0.8105205	m a t	-0.3332942
-2.114872	m a u	-0.4942094
-2.754544	m a x	0.1767707
-2.754544	m a y	-0.180304
-2.754544	m a z	-0.2541199
-2.114872	m a î	0.03651202
-2.572412	n a b	-0.0384995
-2.572412	n a c	-0.2739913
-1.93274	n a d	-0.1645835
-1.034154	n a g	-0.7933047
-0.6953357	n a i	-0.7503906
-0.7331243	n a l	-0.4019258
-0.570397	n a n	-1.326788
-1.93274	n a p	0.1490645
-2.572412	n a q	0.3559398
-1.93274	n a r	-0.2113507
-0.9963657	n a t	-0.1057883
-1.565017	n a u	-0.278003
-1.93274	n a v	-0.2946621
-1.598426	n a î	-0.3051576
-2.610809	p a F	-0.1161606
-1.636822	p a c	0.01545677
-1.210853	p a g	-0.5083355
-1.268845	p a i	-0.2070633
-1.44919	p a l	-0.1696561
-1.44919	p a n	-0.1388011
-2.610809	p a p	-0.2247146
-2.610809	p a q	0.3559398
-0.2878686	p a r	-0.5751818
-0.8834944	p a s	-0.6526251
-1.971137	p a t	0.1478905
-2.610809	p a u	-0.2693599
-1.971137	p a v	-0.4433151
-1.210853	p a y	-0.184141
-2.981165	r a -	-0.09739803
-1.205546	r a </s>
-1.824391	r a b	-0.8311759
-1.405119	r a c	-0.2559905
-1.824391	r a d	-0.3489885
-2.341493	r a f	-0.3692533
-1.824391	r a g	-0.06463629
-2.981165	r a h	-0.2073687
-0.4756997	r a i	-0.2930272
-2.341493	r a j	0.5716252
-1.442907	r a l	-0.5471911
-2.341493	r a m	-0.07716036
-0.728425	r a n	-0.6274945
-1.4843	r a p	-0.4733229
-2.981165	r a q	0.3559398
-2.341493	r a r	-0.181941
-2.341493	r a s	0.1303018
-0.8932352	r a t	0.3071142
-2.341493	r a u	-0.1916178
-1.308209	r a v	-0.6830044
-2.341493	r a y	-0.2060824
-1.639202	r a î	0.5710782
-2.981165	r a ï	-0.2073687
-1.653213	s a </s>
-1.176091	s a b	0.1665699
-1.470425	s a c	-0.2201584
-0.9262138	s a g	-0.7400517
-0.9842057	s a i	-0.1153713
-2.627199	s a k	-0.1161606
-1.46558	s a l	-0.1331719
-1.619804	s a m	-0.3020099
-0.5740313	s a n	-0.8234112
-2.627199	s a o	-0.2339601
-1.987527	s a s	0.250896
-0.6831757	s a t	-1.251206
-1.285236	s a u	-0.5762989
-1.987527	s a v	-0.03282914
-2.627199	s a y	-0.180304
-2.829304	t a </s>
-1.218495	t a b	-0.901921
-1.253257	t a c	-0.7974966
-1.48734	t a g	-0.2027251
-0.7303784	t a i	-0.2867099
-0.8852804	t a l	-0.1552491
-1.821909	t a m	-0.5168633
-0.6081626	t a n	-1.088813
-1.429348	t a r	-0.8810452
-1.821909	t a s	-0.4352899
-0.7196546	t a t	-0.1993591
-2.189632	t a u	-0.1371534
-2.189632	t a x	-0.04807878
-2.120115	u a -	-0.09739803
-2.120115	u a </s>
-2.120115	u a b	-0.0384995
-2.120115	u a h	-0.2073687
-1.480443	u a i	-0.3967037
-0.447158	u a l	-1.116253
-0.4771213	u a n	-0.9695183
-2.120115	u a r	-0.2139281
-2.120115	u a s	-0.2322156
-0.9633408	u a t	0.2060132
-2.410679	v a </s>
-1.771007	v a b	-0.2633489
-2.410679	v a c	-0.2786922
-0.4988405	v a i	-0.04503399
-1.253905	v a l	-0.2473329
-0.3340303	v a n	-1.173428
-2.410679	v a p	-0.2601452
-2.410679	v a r	-0.2240875
-1.403284	v a t	-0.229772
-1.436693	v a u	-0.2223336
-0.4968653	w a n	-0.2344591
-0.6353448	x a c	-0.3198051
-0.6353448	x a m	-0.04144479
-1.275017	x a n	0.002112955
-1.275017	x a s	-0.2810163
-1.610809	y a b	-0.0384995
-0.9711369	y a g	-0.147212
-1.610809	y a m	-0.2133801
-0.2108534	y a n	-0.669423
-1.610809	y a u	-0.2075334
-0.3343148	z a i	-0.4569997
-0.9739866	z a r	-0.2240875
-0.4968653	ç a </s>
-0.9208187	é a b	-0.6050186
-0.49485	é a l	-0.5074665
-1.894805	é a m	-0.2488874
-0.3565473	é a n	-0.08198634
-1.894805	é a t	-0.2670828
-1.894805	é a v	-0.2184657
-0.4968653	- b a	-0.2497063
-0.4968653	U b e	-0.1908797
-1.308574	a b a	-0.2619977
-2.465348	a b e	-0.1983857
-0.6897293	a b i	-1.181036
-0.366423	a b l	-0.5304413
-0.6897293	a b o	-0.647727
-1.457953	a b r	0.1160915
-1.308574	a b s	-0.3889328
-0.4968653	b b e	-0.1908797
-0.4968653	d b o	-0.2704682
-0.9739866	e b a	-0.2313829
-0.9739866	e b d	-0.2073687
-0.9739866	e b o	-0.04613458
-0.4968653	h b a	-0.2677349
-2.002015	i b a	-0.1750727
-0.8403963	i b i	0.007022113
-0.2747011	i b l	-0.7598625
-1.362344	i b r	-0.1500446
-0.8452415	i b u	-0.1272268
-2.002015	i b é	-0.2719332
-1.448258	m b a	-0.4925843
-2.08793	m b d	-0.2073687
-1.080535	m b i	-0.3359732
-0.7459666	m b l	-0.1310893
-0.5496719	m b o	-0.8426092
-0.5496719	m b r	-0.8393941
-1.113943	m b é	-0.2401328
-1.113943	o b a	-0.3205572
-2.08793	o b b	-0.1161606
-2.08793	o b e	-0.1983857
-0.7459666	o b i	-0.4470835
-1.448258	o b j	0.007669747
-0.5496719	o b l	-1.122147
-1.080535	o b r	-0.2484583
-1.113943	o b s	-0.171923
-0.9263109	o b t	-0.07194138
-2.08793	o b y	-0.1161606
-0.7269987	r b a	-0.7415918
-0.5442115	r b e	-0.08559072
-1.061314	r b i	-0.2681829
-0.5442115	r b r	-0.7178715
-1.700985	r b é	-0.1687632
-0.4968653	t b a	-0.1884367
-1.911839	u b a	-0.1884367
-1.911839	u b e	-0.1983857
-0.7550648	u b i	-0.1743633
-0.2388821	u b l	0.09963059
-1.272167	u b r	-0.4556207
-1.911839	u b s	-0.2098868
-1.911839	u b u	-0.2733852
-1.576047	é b a	-0.1884367
-0.4144275	é b i	-0.5508413
-1.576047	é b r	-0.2793195
-0.60206	é b u	-0.3014347
-1.576047	é b é	-0.2336204
-1.033285	- c e	-0.263988
-1.033285	- c h	-0.05279021
-0.2218488	- c i	-1.117114
-1.672957	- c l	-0.2377575
-1.672957	- c o	-0.2656217
-0.4968653	A c t	-0.1473858
-0.4968653	E c k	-0.2339601
-0.1249387	O c t	-0.3866026
-2.675842	a c -	0.2325192
-1.701856	a c </s>
-2.03617	a c a	-0.2410274
-0.6876153	a c c	-0.1033764
-1.032849	a c e	-0.2473864
-0.8172491	a c h	-0.190064
-1.275887	a c i	-0.5259008
-2.675842	a c k	-0.2339601
-2.675842	a c l	-0.2016733
-2.03617	a c o	-0.3813267
-1.275887	a c q	0
-2.03617	a c r	-0.4758371
-0.4547011	a c t	-0.2047123
-2.675842	a c u	-0.2501581
-2.675842	a c é	-0.2100566
-0.9980041	c c a	-0.7449344
-1.152228	c c e	-0.5130425
-0.9980041	c c i	-0.7515849
-0.6627578	c c o	-1.109185
-2.159623	c c r	-0.2367268
-0.5835766	c c u	-0.4236699
-1.185637	c c è	-0.697701
-1.152228	c c é	-0.1995246
-1.820981	e c </s>
-1.303879	e c e	-0.4708455
-1.11869	e c h	0.008246124
-1.820981	e c i	-0.4517586
-0.6213651	e c o	-0.694196
-2.460653	e c p	-0.1161606
-2.460653	e c r	-0.2509876
-2.460653	e c s	-0.1161606
-0.2735918	e c t	-0.0147773
-1.820981	e c u	-0.4849946
-1.902516	i c </s>
-0.598165	i c a	-1.095376
-0.7665694	i c e	-0.564153
-1.200225	i c h	0.2974746
-0.540173	i c i	-0.3722047
-1.534793	i c l	-0.5249364
-1.534793	i c o	-0.4842323
-1.534793	i c t	-0.4277541
-1.00393	i c u	-0.9450991
-0.2218488	l c o	-0.1525059
-0.5561635	l c u	-0.3734739
-1.775732	n c </s>
-1.775732	n c a	-0.3840882
-0.261627	n c e	-0.8463772
-1.298611	n c h	-0.05629134
-0.9306337	n c i	-0.6644249
-1.21146	n c l	-1.099159
-1.21146	n c o	-0.545586
-2.110047	n c r	-0.1733477
-1.775732	n c t	-0.6748409
-1.592945	n c u	-0.4528421
-1.592945	n c è	-0.8422067
-1.349763	n c é	-0.4270555
-2.371927	o c -	0.2325192
-2.371927	o c </s>
-0.7611179	o c a	-0.4903614
-0.7289332	o c c	-0.9634675
-2.371927	o c e	-0.2014017
-0.7289332	o c h	-0.06656063
-0.8336686	o c i	-0.7217204
-2.371927	o c k	-0.2339601
-1.39794	o c o	-0.2871902
-1.364532	o c t	-0.2002258
-0.9719713	o c u	-0.5642697
-1.364532	o c é	-0.3841209
-1.490662	r c </s>
-0.6792259	r c e	-0.01358545
-0.5920758	r c h	-0.3731831
-0.6334684	r c i	-0.1966983
-1.156347	r c o	-0.1556607
-2.130334	r c r	-0.2367268
-1.156347	r c u	-0.0006640255
-2.130334	r c y	-0.2073687
-2.130334	r c è	-0.2699454
-1.490662	r c é	-0.1238343
-0.903448	s c a	-0.4615644
-2.065067	s c e	-0.25651
-1.09108	s c h	-0.2476599
-0.9082932	s c i	-0.2884379
-2.065067	s c o	-0.1564772
-0.3640817	s c r	-1.125099
-0.9082932	s c u	-0.01262912
-0.4968653	t c </s>
-2.015379	u c a	-0.2623668
-2.015379	u c c	-0.2534172
-0.615424	u c h	0.159693
-1.007984	u c i	-0.1710396
-1.375708	u c o	-0.4555973
-2.015379	u c r	-0.2534172
-0.5185139	u c t	-0.341451
-0.8586054	u c u	-1.042835
-2.015379	u c é	-0.2100566
-1.496865	x c a	-0.2696113
-0.3352463	x c e	-0.5260465
-0.5228788	x c u	-0.8166772
-0.4968653	y c h	-0.2494959
-0.9739866	â c e	-0.03913859
-0.9739866	â c h	-0.09990276
-0.9739866	â c i	-0.1903923
-0.2676215	è c e	0.0333873
-0.6353448	è c l	-0.4265228
-1.518514	é c a	-0.3840882
-0.916454	é c e	-0.3666477
-0.615424	é c h	0.2630996
-0.819544	é c i	-0.2150613
-0.8816918	é c l	-1.003306
-0.916454	é c o	0.01590127
-1.041393	é c r	0.02019912
-1.852829	é c u	-0.2216847
-1.852829	é c è	-0.1129799
-1.150537	é c é	-0.4411004
-0.1249387	ê c h	0.07714492
-0.1884403	- d e	-0.5771449
-1.195835	- d i	-0.258404
-0.4968653	A d é	-0.2681882
-0.4968653	C d t	-0.1161606
-0.7883704	a d a	-0.2570233
-1.122939	a d e	-0.2006929
-1.156347	a d h	-0.2471656
-0.97356	a d i	-0.2241062
-0.7883704	a d m	-0.1395339
-0.4573772	a d r	-0.9317462
-1.490662	a d é	-0.5031933
-0.7978953	b d a	-0.2542018
-0.7978953	b d o	-0.148008
-0.4968653	c d -	-0.1161606
-1.496865	e d a	-0.1192045
-1.496865	e d b	-0.1161606
-0.8571935	e d e	-0.4656301
-0.3400915	e d i	-0.1383133
-1.496865	e d s	0.8634214
-1.670107	i d </s>
-2.309779	i d a	-0.1192045
-0.3505154	i d e	-0.03327125
-0.8586708	i d i	-0.3733774
-2.309779	i d n	-0.1161606
-1.670107	i d o	-0.4852796
-2.309779	i d s	0.8634214
-2.309779	i d u	-0.2270604
-1.335792	i d è	-0.0285618
-0.6087934	i d é	-0.6204672
-0.1582235	l d e	-0.115842
-0.9053461	n d </s>
-0.9053461	n d a	-0.335003
-0.6834973	n d e	-0.2206116
-0.9845273	n d i	-0.2015166
-1.620804	n d o	-0.1545987
-0.7173556	n d r	-0.2136642
-1.331315	n d s	0.1461281
-1.081437	n d u	0.08899832
-2.782423	n d y	-0.1161606
-1.109466	n d é	-0.4397942
-2.782423	n d û	-0.012591
-1.928229	o d </s>
-1.288557	o d a	-0.4667853
-0.5862657	o d e	-0.167065
-0.4313638	o d i	-0.2059484
-0.920834	o d u	-0.3971865
-1.288557	o d è	-0.1703318
-1.928229	o d é	-0.2400623
-1.166331	r d '	-0.8194904
-0.6434527	r d </s>
-0.7403627	r d e	-0.7975494
-0.6892102	r d i	-0.2625526
-1.166331	r d o	-0.2600927
-1.132923	r d r	-0.108645
-2.140318	r d s	0.8634214
-1.500646	r d u	-0.3901704
-1.132923	r d é	-0.4437225
-0.1582235	s d a	-0.4667853
-1.819085	u d </s>
-0.6574656	u d e	-0.161777
-1.819085	u d g	-0.1161606
-0.6574656	u d i	-0.1331402
-0.4771213	u d r	0.2299282
-0.4968653	y d a	-0.2799857
-0.1249387	è d e	-0.219689
-1.469977	é d a	-0.1152341
-0.7096938	é d e	-0.3675376
-0.3340303	é d i	-0.3975771
-1.102254	é d o	-0.4712711
-0.7676858	é d u	-0.1867301
-2.109649	é d é	-0.2502815
-0.4968653	ï d e	-0.1743227
-0.4968653	û d o	-0.2604302
-1.403692	' e a	-0.2899176
-1.738007	' e f	-0.2345547
-1.738007	' e l	-0.2857073
-1.220905	' e m	-0.4216089
-0.4184156	' e n	0.04803669
-2.377679	' e r	-0.2681246
-0.6503647	' e s	-0.6837153
-0.6503647	' e x	-0.2234437
-0.4968653	- e n	-0.233858
-0.4968653	1 e r	0.03361213
-1.098925	B e a	0.2766014
-1.098925	B e n	-0.2809706
-0.4592535	B e r	-0.2351243
-1.496865	C e </s>
-1.496865	C e c	-0.2760981
-0.5228788	C e l	-0.001623869
-1.496865	C e p	-0.2656141
-0.8571935	C e s	0.3202352
-0.8571935	C e t	0.08650926
-1.195835	D e </s>
-1.195835	D e l	-0.2818412
-1.195835	D e p	-0.2656141
-1.195835	D e r	-0.26671
-1.195835	D e s	0.1796914
-0.1582235	F e r	-0.2671424
-0.9739866	G e i	-0.2802729
-0.9739866	G e o	-0.2466692
-0.9739866	G e r	-0.2817568
-0.4968653	H e u	0.04524606
-1.195835	J e </s>
-0.5561635	J e a	-0.4321706
-0.5561635	J e u	-0.2721629
-1.341963	L e </s>
-1.341963	L e c	0.04761279
-1.341963	L e d	-0.01751292
-1.341963	L e p	-0.278847
-1.341963	L e s	0.1796914
-1.341963	L e t	-0.1283346
-1.341963	L e y	-0.2339601
-1.538258	M e </s>
-1.538258	M e i	0.04180449
-1.538258	M e l	-0.06085783
-1.538258	M e n	-0.257135
-0.5308629	M e r	-0.6097387
-0.5642715	M e s	0.403201
-0.4968653	N e </s>
-1.341963	P e l	-0.06085783
-1.341963	P e o	-0.2466692
-0.3345683	P e r	-0.1764788
-1.341963	P e u	-0.28195
-1.610809	R e b	-0.2339601
-0.9711369	R e c	-0.1346962
-1.610809	R e f	-0.2330733
-0.4540349	R e n	0.2968462
-0.6368221	R e s	-0.3357868
-1.610809	R e t	-0.2654032
-1.341963	S e a	-0.2779102
-1.341963	S e b	-0.2339601
-1.341963	S e i	-0.1895896
-1.341963	S e l	-0.2517729
-1.341963	S e p	-0.06882676
-1.341963	S e r	-0.2471471
-1.341963	S e s	-0.2192693
-0.3343148	T e l	-0.4766223
-0.9739866	T e n	-0.2800593
-1.098925	V e n	-0.2727761
-0.4592535	V e r	-0.2351243
-1.098925	V e u	-0.2657682
-0.4968653	a e l	-0.1684917
-0.7533277	b e </s>
-1.087642	b e a	0.05175197
-1.087642	b e c	-0.5009475
-0.7533277	b e l	-0.6273769
-0.7199192	b e r	0.1619972
-1.087642	b e s	-0.5049052
-1.727314	b e y	-0.2339601
-1.834633	c e -	-0.132664
-0.3672712	c e </s>
-2.808619	c e c	-0.2760981
-2.808619	c e i	-0.1895896
-1.408664	c e l	-0.4279314
-1.311754	c e m	-0.04759461
-1.081305	c e n	-0.2406507
-1.232573	c e p	-1.119677
-0.9895346	c e r	-0.6162176
-0.7676858	c e s	-1.14542
-2.168947	c e t	0.08650926
-2.808619	c e u	-0.2077762
-1.647	c e v	-0.04811811
-2.069381	d e -	0.1678261
-0.6558851	d e </s>
-2.709053	d e a	0.2766014
-2.709053	d e d	-0.2686484
-0.7650295	d e m	-0.2615332
-0.8319764	d e n	-0.9202387
-2.709053	d e p	-0.2656141
-0.933434	d e r	-0.4615486
-1.008068	d e s	0.360411
-1.552279	d e t	-0.921011
-1.552279	d e u	-0.1728353
-1.036096	d e v	-0.04881161
-1.212188	d e z	1.045191
-0.4968653	e e k	-0.1161606
-0.455932	f e c	-0.8457719
-2.098925	f e m	-0.2663778
-1.459254	f e n	-0.2336521
-0.5606673	f e r	-0.6610072
-0.9373063	f e s	-0.4564209
-1.459254	f e t	-0.08375245
-1.09153	f e u	-0.5915749
-0.5314789	g e </s>
-1.410793	g e a	0.5068628
-1.075547	g e m	-0.6170236
-0.7331243	g e n	0.000915885
-1.93274	g e o	-0.2073687
-0.6953357	g e r	-0.9719012
-0.8994557	g e s	-0.9452537
-2.572412	g e t	-0.1439397
-1.93274	g e u	-0.4326257
-2.572412	g e v	-0.2130707
-2.572412	g e z	0.5825949
-0.7514991	h e </s>
-2.394492	h e b	-0.2339601
-2.394492	h e d	-0.2686484
-1.232873	h e i	-0.7647904
-0.9945371	h e l	-0.4779573
-1.237719	h e m	-0.0453223
-1.754821	h e n	-0.2428129
-0.8184459	h e r	-0.07790041
-0.9945371	h e s	-0.4918445
-0.9945371	h e t	-0.5307376
-0.8562344	h e u	-0.887723
-2.394492	h e v	-0.1735621
-1.754821	h e z	0.3577454
-0.7004912	i e </s>
-2.953231	i e d	-0.2686484
-1.342423	i e l	-0.162646
-1.791612	i e m	-0.3658452
-0.6434527	i e n	-0.5242027
-0.6302912	i e r	-0.7138076
-1.553276	i e s	-0.05451193
-1.979245	i e t	-0.04982349
-1.113943	i e u	-0.1310318
-0.8129134	i e z	0.1007078
-0.5442115	j e </s>
-0.3590219	j e t	0.05081052
-0.6935902	j e u	-0.2932509
-0.9739866	k e n	-0.2819035
-0.9739866	k e r	-0.282489
-0.9739866	k e t	-0.1439397
-2.443781	l e -	-0.3787011
-0.3934627	l e </s>
-1.632345	l e c	0.09021538
-1.926679	l e i	0.03250462
-1.018386	l e m	-1.326424
-1.356138	l e n	-0.7107487
-3.083453	l e p	-0.278847
-3.083453	l e q	0.2325192
-1.018386	l e r	-0.5077536
-0.808436	l e s	-1.116323
-1.410496	l e t	0.1413844
-1.188647	l e u	-0.1031122
-1.382467	l e v	-0.4298783
-3.083453	l e x	-0.2476936
-2.076058	l e z	0.2593318
-0.9917049	m e </s>
-2.4171	m e d	-0.2423624
-1.899998	m e i	-0.7508719
-3.056772	m e m	0.1416625
-0.1888388	m e n	-1.377779
-1.041393	m e r	-0.2686141
-1.281153	m e s	0.02828467
-1.217484	m e t	-0.5745873
-1.895153	m e u	-0.1374362
-2.082785	m e z	0.01607579
-1.775732	n e -	-0.6353458
-0.3955205	n e </s>
-2.749718	n e a	0.2766014
-0.9104304	n e l	-0.7756807
-0.9518231	n e m	-0.8978502
-1.742323	n e n	-0.2625062
-0.790455	n e r	-0.8340159
-1.13891	n e s	-0.6837301
-1.592945	n e t	-0.3101957
-1.588099	n e u	-0.4524924
-2.749718	n e x	-0.2476936
-1.775732	n e z	1.701534
-1.098925	o e l	-0.1684917
-0.1249387	o e u	-0.06737313
-1.395944	p e </s>
-0.8846066	p e c	-0.8738006
-1.583577	p e i	-0.7561086
-0.9815166	p e l	0.02708769
-1.917891	p e m	-0.08318689
-0.8054253	p e n	-0.3146217
-0.4272294	p e r	-0.5137867
-1.550168	p e s	0.2329262
-1.550168	p e t	-0.5535886
-1.2156	p e u	0.06744891
-2.557563	p e z	0.5825949
-2.715129	r e -	-0.3787011
-0.4924473	r e </s>
-2.715129	r e a	0.05175197
-1.339421	r e c	-0.1081687
-2.347405	r e d	-0.1140178
-1.778754	r e f	-0.3113278
-1.857935	r e g	0.1524211
-2.193182	r e i	-0.4657033
-3.3548	r e j	-0.1161606
-1.778754	r e l	0.06211162
-1.195177	r e m	0.5055133
-0.9134526	r e n	-0.2560291
-1.653815	r e p	-0.917955
-3.3548	r e q	0.2325192
-1.255875	r e r	-1.120732
-0.7934773	r e s	-0.3202982
-1.410777	r e t	-0.3379324
-1.426571	r e u	-0.2901608
-1.711807	r e v	0.1176934
-3.3548	r e y	-0.2339601
-1.426571	r e z	0.482684
-2.380814	r e ç	-0.05323038
-2.920111	s e -	-0.06882676
-0.5041678	s e </s>
-1.520156	s e c	0.03226882
-1.277118	s e i	0.0414052
-2.280439	s e l	-0.1278046
-0.9760879	s e m	-0.5598469
-1.061518	s e n	-0.3395079
-2.280439	s e p	-0.2936762
-0.6037019	s e r	-1.054077
-1.080823	s e s	-0.9451197
-2.280439	s e t	-0.353184
-1.520156	s e u	-0.2540299
-1.758492	s e z	0.07508707
-2.174157	t e -	-0.04291803
-0.4869252	t e </s>
-2.140748	t e a	-0.04666167
-2.140748	t e c	-0.5716008
-2.174157	t e f	-0.3221293
-2.174157	t e i	-0.1402538
-1.80618	t e l	0.2613782
-1.132764	t e m	-0.3902254
-0.8317341	t e n	-0.2914214
-0.6384408	t e r	-0.3331234
-1.007825	t e s	-0.3795042
-1.236305	t e u	-1.103411
-3.148143	t e v	-0.1735621
-3.148143	t e x	-0.2600426
-2.140748	t e z	0.2593318
-2.810733	u e -	-0.06882676
-0.4053822	u e </s>
-2.810733	u e g	-0.2240674
-2.171061	u e i	-0.1830449
-0.6704146	u e l	-0.4141963
-1.313867	u e m	-0.7582223
-1.653959	u e n	-0.2730157
-0.9159272	u e r	-1.210942
-1.012837	u e s	-0.9046143
-1.653959	u e t	0.02480754
-1.649114	u e u	-0.4385113
-1.649114	u e z	0.07508707
-2.837309	v e -	-0.2749527
-0.9425041	v e </s>
-1.680536	v e a	-0.516075
-2.197638	v e c	-0.5009475
-1.386202	v e i	-0.6754889
-1.299051	v e l	0.1307696
-1.299051	v e m	-0.70144
-0.6080503	v e n	-0.6198366
-0.5275307	v e r	-0.5765065
-1.194316	v e s	-0.9195991
-2.837309	v e t	-0.1283346
-1.495346	v e u	0.3958936
-1.194316	v e z	0.9705359
-0.4968653	w e e	-0.1161606
-0.4540349	x e </s>
-1.610809	x e l	-0.06085783
-0.6034136	x e m	-0.5621665
-1.610809	x e r	0.03361213
-0.9711369	x e s	-0.04515803
-1.877077	y e </s>
-1.877077	y e l	-0.1684917
-0.8696815	y e n	-0.3292981
-0.3802112	y e r	-0.7250739
-1.877077	y e s	0.1796914
-1.237405	y e u	0.2238697
-0.7203028	y e z	-0.2100815
-0.1249387	z e </s>
-0.1485077	é e </s>
-2.759316	é e l	-0.06085783
-2.759316	é e n	-0.2745451
-1.78533	é e r	-0.02551535
-0.6092386	é e s	-1.20036
-2.119645	é e x	0.08279768
-2.759316	é e z	0.5825949
-0.4968653	A f i	-0.2019715
-0.4968653	E f f	-0.1066153
-0.1962947	a f f	0.8677476
-0.5642715	a f i	0.02614874
-1.538258	a f o	-0.2035253
-0.9665915	e f </s>
-1.334315	e f a	-0.3074265
-1	e f e	-0.2279271
-0.3309932	e f f	-0.7406212
-1	e f o	0.07063729
-1.973987	e f s	0.7586861
-1	e f u	-0.5840319
-1.538435	f f a	-0.07919
-0.4771213	f f e	-0.6414354
-0.60206	f f i	-0.3792185
-2.178107	f f o	0.1152334
-0.7269987	f f r	-0.0518488
-2.178107	f f u	-0.01751292
-0.8361432	f f é	0.2134283
-0.5904781	i f </s>
-2.366097	i f a	-0.08257709
-1.726425	i f e	-0.4542393
-0.7900504	i f f	-0.4169751
-0.37787	i f i	-1.053109
-0.9149892	i f s	0.04139268
-0.4968653	l f o	0.1152334
-1.436977	n f a	-0.4870344
-1.436977	n f e	0.1432621
-0.4658403	n f i	-0.4271171
-0.3245111	n f o	-0.8808136
-1.436977	n f r	0.03951272
-2.076649	n f é	0.4954447
-1.819085	o f </s>
-0.8116896	o f e	-0.5526529
-0.3222193	o f f	0.1241769
-0.845098	o f i	-0.8374341
-0.845098	o f o	-0.7700444
-0.2676215	r f a	-0.2111659
-0.6353448	r f i	-0.366823
-0.1383027	s f a	-0.2337619
-1.538258	s f e	-0.1430446
-1.538258	s f o	0.1152334
-1.538258	s f é	0.4954447
-0.6353448	u f </s>
-0.2676215	u f f	-0.484108
-2.015379	é f -	-0.1161606
-1.375708	é f </s>
-1.375708	é f a	-0.1169689
-1.375708	é f e	-0.07176998
-0.4771213	é f i	-0.3193958
-1.375708	é f l	0.06706986
-1.375708	é f è	0.007669747
-0.4771213	é f é	-0.3010299
-0.4968653	A g r	-0.1306156
-1.308374	a g a	-0.4405438
-0.248852	a g e	0.3479065
-2.469993	a g g	-0.2466692
-1.070038	a g i	-0.1346171
-1.018885	a g n	0.829219
-1.018885	a g r	-0.7396244
-1.070038	a g é	-0.003224015
-0.4968653	d g e	-0.2815426
-0.8985862	e g a	-0.3591362
-0.5308629	e g i	-0.4633022
-0.8985862	e g o	-0.1612405
-0.5642715	e g r	-0.3341776
-1.098925	g g e	-0.224193
-1.098925	g g l	-0.1444039
-1.098925	g g è	0.2325192
-1.098925	g g é	-0.2556469
-1.519951	i g a	-0.4688536
-0.7596679	i g e	0.07316163
-1.519951	i g i	-0.4472772
-0.2477845	i g n	0.3182055
-1.152228	i g u	-0.2903472
-1.152228	i g é	0.009073675
-0.9739866	l g e	-0.1939314
-0.3343148	l g r	-0.355465
-0.9835442	n g </s>
-1.166331	n g a	-0.7929129
-0.30103	n g e	-0.01377177
-2.140318	n g i	-0.2224278
-1.500646	n g t	-0.1161606
-0.7983546	n g u	-0.3496093
-1.132923	n g é	0.009073675
-1.642993	o g a	-0.2440042
-0.6355983	o g e	-0.4198241
-0.6355983	o g i	-0.4186237
-1.003322	o g r	-0.01510242
-0.6690068	o g u	-0.6103436
-1.375708	r g </s>
-1.041393	r g a	-0.8105233
-0.3424227	r g e	0.1605275
-1.041393	r g i	-0.1448788
-0.8586054	r g n	-0.8050218
-1.041393	r g u	-0.1708359
-1.375708	r g é	-0.05485816
-0.4968653	s g e	-0.224193
-0.4968653	t g e	-0.1939314
-1.819085	u g a	-0.2440042
-0.6623108	u g e	0.2663632
-0.845098	u g g	-0.1641547
-0.3222193	u g m	0
-1.819085	u g o	-0.186623
-1.819085	u g u	-0.04382449
-0.1884403	è g l	-0.3727934
-1.195835	è g u	-0.04382449
-0.615424	é g a	-0.3335028
-1.375708	é g e	-0.4097327
-1.041393	é g i	-0.3351914
-1.041393	é g l	0.08453903
-1.041393	é g o	-0.2975733
-0.6734159	é g r	-0.0107916
-0.8586054	é g u	-0.9914334
-1.375708	é g â	0.007669747
-0.6188451	' h a	-1.004802
-1.775619	' h e	-0.2175884
-0.8016323	' h i	-0.3096772
-1.135947	' h o	-0.2857073
-0.7682239	' h u	-0.4144715
-0.8016323	' h é	-0.2653996
-1.775619	' h ô	-0.2073687
-0.4968653	0 h 3	-0.1161606
-0.3345683	C h a	-0.5504186
-1.341963	C h e	-0.2111543
-0.7022916	C h i	-0.2257517
-0.4968653	O h l	-0.2073687
-0.4968653	P h o	-0.2460234
-0.4968653	R h i	-0.2597637
-0.4968653	T h é	-0.2757344
-0.7978953	a h </s>
-0.7978953	a h u	-0.229268
-1.735066	c h </s>
-0.4718249	c h a	-0.2304996
-2.709053	c h b	-0.1161606
-0.4639996	c h e	-0.507066
-1.212188	c h i	-0.1596014
-1.701658	c h n	-0.1551998
-1.133006	c h o	0.09906816
-2.069381	c h r	-0.2374404
-1.735066	c h u	-0.2784519
-2.709053	c h w	-0.1161606
-1.735066	c h è	-0.1161606
-1.133006	c h é	-0.3608248
-2.709053	c h ô	-0.2073687
-0.1249387	d h é	-0.2653996
-0.9739866	i h a	-0.1691973
-0.9739866	i h r	-0.2339601
-0.9739866	i h u	-0.229268
-1.341963	l h a	-0.2369491
-0.1851896	l h e	-1.010265
-1.341963	l h o	-0.2673539
-1.098925	n h a	-0.2121255
-0.1249387	n h e	-0.3233563
-0.7978953	o h i	-0.2775528
-0.7978953	o h n	-0.2541199
-1.700985	p h e	-0.2363378
-1.700985	p h i	-0.2775528
-0.09017663	p h o	-1.201217
-1.700985	p h y	-0.1161606
-0.30103	s h e	-0.8230478
-0.6353448	s h i	-0.4846132
-1.275017	s h o	-0.06085783
-1.195835	t h a	-0.1691973
-0.5561635	t h e	-0.1332675
-1.195835	t h i	-0.2011798
-1.195835	t h o	-0.2460234
-0.02482358	u h a	-1.147367
-1.752138	u h l	-0.2073687
-0.4592535	é h e	-0.4998503
-0.4592535	é h i	-0.4564035
-2.267717	' i c	-0.1350107
-1.293731	' i d	0.09284398
-1.293731	' i l	-0.3284363
-0.770852	' i m	-1.024711
-0.168792	' i n	-0.7748802
-2.267717	' i r	-0.2642232
-2.267717	' i s	-0.2230526
-0.05799195	- i l	-0.4900894
-0.6353448	A i d	-0.2509452
-1.275017	A i n	-0.2165934
-0.6353448	A i r	-0.3141599
-1.275017	A i x	0.04465234
-0.7978953	B i e	-0.1707328
-0.7978953	B i h	-0.2339601
-1.098925	C i -	-0.1857966
-1.098925	C i </s>
-1.098925	C i n	-0.276949
-1.098925	C i t	-0.2639779
-0.9739866	D i r	0.0005946457
-0.9739866	D i s	-0.2673422
-0.9739866	D i z	-0.09739803
-1.098925	F i a	-0.2051017
-1.098925	F i d	-0.2621849
-0.4592535	F i n	-0.2337388
-0.4968653	K i n	-0.2475271
-1.275017	L i c	-0.2011714
-1.275017	L i l	-0.02514228
-1.275017	L i o	0.9836819
-1.275017	L i q	1.473168
-1.275017	L i s	-0.2413139
-1.275017	L i x	-0.2744923
-0.3343148	M i c	-0.4792664
-0.9739866	M i r	0.0005946457
-0.1582235	P i e	-0.1607943
-0.4968653	R i B	-0.1161606
-0.9739866	S i </s>
-0.3343148	S i n	-0.4764291
-0.4968653	T i t	-0.2505219
-1.451108	V i c	-0.2698416
-0.4771213	V i e	0.02753142
-1.451108	V i l	-0.02514228
-1.451108	V i r	-0.2819855
-1.451108	V i s	-0.2451291
-1.451108	V i t	-0.2639779
-1.451108	V i v	-0.2121255
-3.057967	a i -	-0.1227629
-0.9590414	a i </s>
-3.057967	a i b	0.04635212
-3.057967	a i d	-0.02609575
-1.606859	a i e	-0.02322024
-3.057967	a i g	0.07902125
-1.18089	a i l	-0.5995545
-1.658011	a i m	-0.4086661
-0.9590414	a i n	-0.6293054
-0.7976734	a i r	-0.6241106
-0.5698753	a i s	-0.7652965
-0.6472875	a i t	-0.6510079
-3.057967	a i x	0.04465234
-2.267717	b i -	-0.1227629
-2.267717	b i </s>
-1.628046	b i a	-0.1193772
-0.867762	b i e	-0.2762022
-0.624724	b i l	-0.9852276
-1.628046	b i m	-0.400346
-1.628046	b i n	-0.2062701
-2.267717	b i r	-0.08931047
-1.293731	b i s	0.02065206
-0.372912	b i t	0.3354819
-1.638689	c i -	-0.3572075
-0.9187702	c i </s>
-1.003091	c i a	0.2213651
-2.646084	c i c	-0.2373836
-1.070038	c i d	-0.8500045
-0.7178553	c i e	0.5896613
-2.646084	c i f	-0.04694332
-1.149219	c i l	-0.9105727
-1.672098	c i n	-0.8434681
-2.646084	c i o	0.9836819
-1.304121	c i p	-0.3198142
-1.672098	c i r	-0.8418347
-1.149219	c i s	0.2014798
-0.9187702	c i t	-0.7853001
-2.646084	c i v	-0.2568659
-1.489311	c i è	-0.459959
-1.246129	c i é	0.3936481
-1.502564	d i </s>
-1.213075	d i a	-0.09088093
-1.656788	d i c	-0.01448184
-0.9120448	d i e	0.03367954
-0.8885638	d i f	-0.1033375
-2.024511	d i g	0.1557743
-2.664183	d i l	-0.1800442
-1.502564	d i m	-0.480452
-2.024511	d i n	-0.1639811
-2.664183	d i o	-0.2822069
-1.167317	d i q	0.7144822
-1.264227	d i r	0.2742151
-0.7201593	d i s	-0.04719734
-0.9120448	d i t	-0.007613957
-1.213075	d i v	-0.4549122
-2.664183	d i x	0.04465234
-2.664183	d i z	-0.2466692
-2.664183	d i è	0.3327174
-1.690196	d i é	-0.01534703
-2.25274	e i -	-0.1227629
-2.25274	e i e	-0.1707328
-1.091121	e i g	-0.4284865
-0.2787536	e i l	-0.8360915
-1.091121	e i m	-0.7573332
-0.7144822	e i n	-0.5130909
-2.25274	e i s	-0.2673422
-2.25274	e i t	-0.1815457
-1.538688	f i a	-0.4783908
-0.5578563	f i c	0.03054142
-1.572097	f i d	-0.2688838
-0.9700368	f i e	-0.6366153
-1.572097	f i g	-0.8175067
-1.20412	f i l	0.3736765
-2.546083	f i m	-0.1754966
-0.7704644	f i n	-1.254717
-1.906412	f i q	1.248319
-1.146128	f i r	-0.4823964
-1.20412	f i s	-0.4301435
-1.572097	f i t	-0.1760013
-1.384464	f i x	-0.6601695
-1.384464	f i é	-0.4455334
-1.894805	g i </s>
-0.8874103	g i e	-0.1723467
-1.894805	g i m	-0.2498254
-0.8874103	g i n	-0.09840302
-1.255134	g i o	0.7588325
-1.255134	g i q	1.248319
-1.894805	g i r	-0.08931047
-0.552842	g i s	-0.7315326
-0.9208187	g i t	0.06282932
-1.928229	h i b	-0.2149712
-0.9542425	h i c	-0.3421993
-1.288557	h i d	-0.4981726
-0.7666101	h i e	-0.13398
-1.928229	h i f	-0.2058665
-1.928229	h i h	-0.2339601
-1.928229	h i l	-0.02514228
-1.288557	h i n	-0.1879813
-1.928229	h i p	-0.2760689
-1.928229	h i q	1.473168
-1.288557	h i r	-0.3141599
-0.920834	h i s	-0.4103557
-1.288557	h i v	-0.1955306
-0.7978953	k i </s>
-0.7978953	k i d	-0.2805732
-2.156047	l i -	-0.3476124
-1.788323	l i </s>
-1.344611	l i a	-0.01881027
-1.788323	l i b	-0.3523288
-0.9766338	l i c	-0.3275014
-0.9186418	l i e	0.1382183
-1.634099	l i f	-0.5544511
-1.25746	l i g	0.1911656
-1.788323	l i m	-0.5531174
-1.344611	l i n	-0.3736567
-1.788323	l i o	1.056922
-2.795718	l i p	-0.2760689
-1.453755	l i q	1.191152
-1.788323	l i r	0.1658002
-0.6756038	l i s	-0.01316589
-0.9009131	l i t	-1.189919
-1.344611	l i v	-0.9294189
-2.156047	l i z	-0.04088929
-2.156047	l i è	0.107868
-1.344611	l i é	-0.1993255
-2.426284	m i -	-0.2733852
-1.452298	m i </s>
-1.786613	m i a	-0.4964446
-1.418889	m i c	-0.4582738
-1.786613	m i d	-0.4428307
-1.084321	m i e	0.05617809
-1.026329	m i l	-0.1474288
-0.5676911	m i n	-0.2338018
-2.426284	m i o	0.9836819
-1.452298	m i q	0.9066492
-1.452298	m i r	0.5534366
-0.6741464	m i s	-0.2510473
-1.084321	m i t	-0.2427542
-2.426284	m i u	-0.2073687
-1.786613	m i è	0.107868
-2.546083	n i -	-0.2733852
-1.538688	n i </s>
-1.906412	n i a	-0.3234958
-1.906412	n i b	-0.1784973
-1.384464	n i c	-0.1396499
-0.8187691	n i e	0.286511
-1.38931	n i f	0.06260464
-2.546083	n i j	-0.1161606
-1.538688	n i m	-0.2113816
-2.546083	n i n	-0.2165934
-1.538688	n i o	0.7980528
-0.9700368	n i q	0.6419315
-0.7704644	n i r	-1.338857
-0.90309	n i s	0.09703434
-1.049218	n i t	-0.3073435
-1.538688	n i v	-0.2939443
-1.384464	n i è	-0.1747904
-0.890125	o i </s>
-2.617439	o i c	-0.1350107
-1.977767	o i d	-0.2711431
-1.45582	o i e	-0.2158367
-1.643453	o i g	-0.4874978
-1.643453	o i l	-0.414132
-0.6892102	o i n	-0.5672461
-0.6434527	o i r	-0.9479744
-0.7056006	o i s	-0.5097638
-1.006631	o i t	-0.1347338
-1.610044	o i x	-0.2811354
-1.894805	p i a	-0.1551277
-0.7380315	p i d	-0.1377006
-0.7380315	p i e	-0.2846531
-1.255134	p i n	-0.250233
-1.894805	p i q	1.473168
